2708 128
163 -0.27316764 -0.1460999 -0.21538717 0.11737832 -0.21023287 0.47533113 0.16961929 -0.27456564 -0.31503755 -0.23448847 0.12819655 -0.36735195 -0.17611267 -0.6384566 -0.49340457 0.27136213 0.14359713 0.5098503 0.33863088 -0.0069772294 -0.013921097 0.21253875 -0.19246835 -0.19464453 0.26586536 0.31393772 0.28232992 -0.038233276 0.19854876 -0.24345179 0.2714179 -0.36993486 -0.0062240805 -0.0010899004 -0.2751818 -0.17074521 -0.42815784 -0.11054158 -0.13511021 -0.5111833 0.32433504 0.3256769 -0.110093 0.16076076 0.056081776 0.25514573 -0.35943592 -0.13298072 -0.2931046 0.39670056 0.07661415 0.065636985 0.076041184 0.13355784 -0.009442257 -0.16021386 0.10646332 0.021826603 -0.17014384 -0.2063597 -0.22451577 0.13866241 -0.004098381 -0.18281946 -0.19403823 -0.083036676 0.22455423 0.11212185 -0.038698714 -0.23983993 0.19224426 -0.08832928 -0.27512267 -0.036228817 -0.053617354 0.053951066 -0.46791643 0.21964973 0.07525425 0.3103033 0.15601374 0.2149186 -0.31113583 -0.37695223 -0.031289093 -0.24134795 0.21015589 -0.39856294 -0.22039926 -0.14650421 -0.10652645 0.26060417 0.0093434425 -0.07804096 -0.27479786 -0.13930999 -0.14574604 -0.5639377 -0.12001113 0.05897963 -0.11955592 -0.19222794 -0.3497506 -0.24498752 -0.25731406 0.19339654 -0.015810227 -0.04460199 0.11496241 0.10820927 0.11085536 -0.24750528 -0.1980718 -0.1124506 -0.30638355 0.2283443 -0.117978945 -0.19178814 -0.050045557 -0.3628739 0.05136316 -0.09015848 0.1906745 0.30732304 0.022987762 -0.5025284 0.016833784 -0.09276244
402 0.07138133 0.26121277 -0.32872334 -0.10459566 -0.72398883 -0.056462575 0.61386085 -0.319872 -0.49096885 -0.38293204 0.42343563 -0.408108 0.059381604 -0.5391811 -0.17196758 -0.0067187967 0.3837561 0.3518207 -0.1634703 0.13859707 0.22479099 0.4656072 0.05731816 -0.24734408 0.7369067 0.09943661 0.40612698 -0.2339919 0.14225987 -0.37092605 0.18450464 -0.8522948 -0.08915505 0.5488437 0.17292298 -0.34371653 -0.73860824 -0.24983563 -0.13990387 -0.75259614 0.6367077 0.18301076 -0.39814013 -0.029018376 0.28110218 0.21334223 -0.09473541 -0.7004225 -0.21421908 0.29976073 -0.22206445 -0.28120336 0.10450753 -0.54414374 -0.19850025 -0.4715593 0.18165824 -0.32637045 -0.10042238 -0.2340768 -0.11301131 0.18835324 0.18995194 -0.098087795 -0.14017946 0.47784746 0.16109845 -0.09857009 0.15488698 -0.15439795 0.24412748 -0.38141504 -0.27807567 0.12807252 -0.3224398 0.099263676 -0.13648915 0.008465197 -0.10063571 0.30958897 -0.27594608 0.26817736 0.04400594 -0.4653678 -0.12267633 -0.24603426 0.12580566 -0.24213895 0.108005844 -0.6515086 -0.19242945 -0.100322284 0.2492476 0.08504895 -0.019171778 0.26076168 -0.5038946 -0.50483805 0.10981065 -0.14693162 -0.2560101 0.029331347 -0.2264798 -0.36411744 -0.2902174 0.0141995605 0.0996266 0.04714609 0.1520572 0.09851007 0.4991096 -0.17249574 0.11380746 0.13049388 -0.08492884 0.087392434 -0.5745863 0.41444203 -0.10355614 -0.23924486 0.20006043 -0.11415195 0.5763415 -0.05215934 -0.46475258 -0.55585456 0.13000047 -0.092802286
659 -0.23810913 0.41345644 -0.52733177 0.3579247 -0.47899768 -0.1133971 -0.021966543 0.15392655 -0.4268485 0.19995174 0.10321654 -0.58203 -0.13746144 -0.9162521 -0.7391905 0.54947776 0.20613335 0.26036343 0.75328726 -0.47659037 0.37763336 0.25875184 -0.16874304 -0.5039174 0.20712318 0.11767186 0.12245163 0.603922 0.31736964 0.00689834 0.4162809 -0.7281693 -0.6977716 0.022512848 0.047057655 -0.5194827 -0.26124197 0.20664321 -0.5569978 -0.14641245 0.052119534 0.032865074 0.10180169 0.13947651 0.57727295 0.42797053 -0.02757727 -0.0679859 -0.48011208 0.5268321 0.19306058 0.19769424 0.3693849 0.43197083 -0.12461131 0.13783157 0.37997907 -0.0771061 -0.1980309 -0.38186216 0.3510159 -0.14403157 0.14184289 0.09515723 -0.15651415 -0.06778626 0.01518974 0.36881688 0.14598359 -0.032779515 0.45282412 -0.26533136 0.06372747 -0.27814326 -0.058015976 0.0361927 -0.21206011 0.5041946 0.51822877 -0.33460206 -0.2044261 0.44860876 -0.05904794 0.3946593 -0.22838952 -0.06700003 0.03248746 -0.08802746 0.078973986 -0.13416688 -0.024398435 -0.105221 0.2019272 0.30759627 -0.35658166 0.19370888 -0.029831417 -0.7103072 -0.084988944 -0.2651259 -0.2952721 -0.055087645 -0.003575967 -0.3376466 -0.059356324 0.08088725 -0.17849714 -0.20117378 -0.07582528 -0.7383709 0.3305625 -0.16720334 0.1309902 0.48226327 -0.23506641 0.19961332 -0.1826144 -0.18324085 0.0879764 -0.577078 0.2721098 -0.21390514 -0.27264017 0.17900161 0.046466265 -0.34501535 0.1065286 0.104384705
1696 -0.38264698 0.1119464 -0.28867927 -0.007276469 -0.31634885 0.71644926 -0.12899971 -0.23606245 -0.4146159 -0.10923696 -0.09209049 -0.48984742 0.253342 -0.5356263 -0.7887051 0.2835367 0.32065332 0.43989915 0.31329057 -0.24105704 -0.032398544 0.36743775 -0.42881906 -0.08373441 0.13794847 0.090209685 0.1487657 0.18847215 -0.006877535 -0.46387208 -0.064095 -0.42971498 0.071131974 0.3378124 -0.3742906 -0.03112657 -0.47325906 -0.12858579 -0.39431036 -0.091444686 0.6827173 -0.0434466 -0.31804666 -0.6417011 -0.16595861 0.2598769 -0.6143991 -0.14044733 -0.4237419 0.46425173 0.12001982 0.3080548 0.13409807 -0.6653704 -0.059602585 -0.14968218 0.11004772 -0.11067787 -0.7097812 -0.39989913 -0.4095617 0.22811836 -0.32857913 -0.2826281 0.03163922 0.008749881 -0.033313204 0.20396227 0.46114692 -0.3445772 0.21584426 -0.14344314 -0.67059606 -0.07485933 0.11212429 -0.017671833 -0.5966058 0.057375293 -0.09415351 0.2351847 -0.22400461 0.11955301 -0.44870824 -0.3359525 0.31602845 0.20475139 0.16186236 -0.88229036 0.022081882 -0.2775776 -0.4691197 -0.50184953 -0.3955156 -0.16896136 -0.11905569 0.118979484 -0.36755437 -0.9093321 0.26293644 0.012582911 0.37673113 -0.43870106 -0.40754387 -0.0996827 -0.27112302 0.36659694 -0.067224056 0.037266128 0.29206 0.0842902 0.10251788 0.069933824 0.16521218 0.22252376 -0.1498539 -0.024918009 -0.36456046 -0.41143316 -0.3345132 -0.31032658 -0.22669269 0.34873208 -0.12972435 0.53259295 -0.07727583 -0.38768342 0.1536329 -0.12883125
2295 0.16212814 0.44314405 -0.19224803 -0.3889573 -0.13334097 -0.14220414 0.12479082 -0.0169768 0.21064314 -0.12875444 0.109713964 -0.44478357 -0.31487373 -0.51916075 -0.7441477 0.29747212 0.10692114 0.102687635 0.36585847 0.22499858 -0.021893693 0.24166799 -0.07717118 -0.6222067 0.27732864 -0.18028294 0.14924099 0.39805582 -0.32451478 0.10481393 0.33454937 -0.22327247 -0.24545376 0.17584667 0.23235574 0.17043447 0.22849393 -0.045730647 0.18262646 -0.21968219 0.6796989 -0.18249612 -0.2902126 0.20730832 0.18775603 0.06356531 -0.2502724 -0.028368397 -0.15757716 0.36881727 -0.46398544 0.2832344 0.008381268 -0.29665983 0.15138677 -0.11378682 0.4456195 -0.1005452 -0.024693487 -0.38290808 0.32161772 0.31687608 -0.09390469 -0.37910712 -0.350449 -0.4040486 0.16123338 -0.124088734 0.19129784 -0.12657157 0.013637537 -0.10572114 -0.41128942 -0.04141162 -0.06490175 -0.20273003 -0.4783327 -0.11060326 -0.03683093 0.21876708 0.33583453 -0.3240452 -0.5535957 0.053351276 -0.46550453 -0.39204726 0.069461234 0.26985145 -0.2591166 -0.3547717 -0.31481925 0.23935017 0.04163012 0.29656115 0.18931566 -0.22457689 -0.2417874 -0.88015985 0.09710797 -0.02399737 -0.12943943 0.055894896 -0.39314097 0.07942153 -0.027226336 0.03187446 0.36132085 -0.7096348 -0.29492423 -0.02815207 0.31153548 -0.03541141 -0.51313215 0.17764744 0.075606205 0.3291902 -0.072963886 -0.7842219 0.20858744 -0.34452856 0.23883119 -0.56285655 0.13476062 0.2912127 0.14981519 -0.27116928 0.056214288 0.4496648
1274 0.22073987 0.12319585 -0.6420606 -0.0226952 -0.07956383 0.37442744 0.020547336 0.016762806 0.06533687 -0.5570851 0.015397506 -0.46374056 0.1319611 -0.58628136 -0.9311079 0.041776925 0.31908685 -0.22481953 0.3024498 -0.13422552 -0.099923655 0.658486 -0.01675834 -0.5654673 0.121199645 0.23526512 0.4377039 0.004129343 -0.4312591 -0.030578673 0.08759919 -0.53888106 -0.18797973 0.23836692 -0.035100896 -0.10060517 -0.08851938 -0.091738194 -0.23413719 -0.30044907 0.086784706 0.4264493 0.016204039 0.16969045 0.34638047 -0.29686213 0.015390244 0.25794333 -0.19001839 0.4525775 -0.12292665 0.35140863 0.09373015 -0.20498542 0.38280067 0.018587843 0.13165182 -0.014921462 -0.6464226 -0.16915286 0.20879757 0.03721824 0.123210885 0.17550488 -0.17591904 0.0972763 -0.051643886 -0.47440052 0.1297995 -0.5069277 0.18590346 0.36567685 -0.13542928 -0.33982924 0.15900825 -0.11129283 -0.42642072 0.41538474 0.10806306 0.017250374 0.30729246 -0.06259157 -0.10343609 -0.3710282 -0.34722772 -0.43893176 0.27148175 0.0087151835 0.08721457 -0.028270986 -0.15968904 0.3041169 -0.10904413 0.07157779 -0.32668337 -0.32781613 -0.08525872 -0.52350354 0.015326985 0.11197175 -0.28712237 -0.23289657 -0.33535907 -0.1978011 -0.6093185 -0.20741697 -0.146439 -0.3079456 -0.22338565 -0.2840353 0.1871216 -0.46175018 0.18473701 -0.039063036 -0.18053924 0.37660435 -0.22970848 -0.6429561 -0.10127124 -0.32620388 0.45569354 0.04737558 0.21726388 0.33342615 -0.27279115 -0.16917229 -0.27840695 0.01698242
1286 -0.012972834 -0.13947271 -0.22814383 0.030149113 -0.37113765 0.49729282 0.5094395 -0.15362635 -0.44645858 -0.26089683 0.44455302 -0.8428432 -0.21691154 -0.8121368 -0.76803064 0.5709761 0.38702795 0.43299207 0.47060087 -0.19080904 0.16174565 0.20864084 0.17323816 -0.7216162 -0.058921445 0.4834619 0.21882136 0.23974402 -0.27728173 -0.389939 0.3899006 -0.38283482 -0.14850903 -0.075184345 -0.03455851 0.028953647 -0.46855742 -0.227694 0.0631659 -0.38925418 0.5339854 0.47669202 0.10873233 0.44743967 0.10924085 0.049543038 0.06901428 -0.15342444 -0.258653 0.5664006 0.13399339 -0.121607184 0.26773706 -0.1001553 -0.045865305 -0.29063615 -0.030202929 0.035993394 0.08242884 -0.23510216 -0.03120412 0.38015997 0.23157065 0.07961923 -0.28472412 0.06583589 0.24436069 -0.04224924 0.0329273 -0.43869713 0.18369617 -0.022456877 -0.41676247 -0.19805814 -0.22052662 0.25700074 -0.5545981 0.20347206 -0.026126025 -0.053345818 0.1279041 0.19729973 -0.1508081 -0.3571025 -0.21717031 -0.021742126 0.3289279 0.15503609 -0.33132234 -0.16376582 -0.4497934 0.21245232 0.006112153 -0.062132385 0.018939609 -0.22183491 -0.15908064 -0.2474125 -0.21083896 0.098769106 -0.0923805 -0.30378193 -0.025129098 -0.21328427 -0.24900629 0.2450513 -0.01001024 -0.25018853 0.082433194 0.084150724 0.05183919 -0.28805697 0.14134559 0.24955522 -0.33502167 -0.048129123 -0.45147577 -0.28825822 -0.061175205 -0.6030228 -0.10338292 -0.33983406 0.29415017 0.26265353 -0.026722223 -0.36667433 0.17088278 0.23894204
1544 0.00096418976 -0.3167971 -0.13954073 0.12047299 -0.086084254 0.2937892 0.06763374 -0.23662312 -0.21726213 -0.24643743 -0.65002763 -0.38064653 -0.307369 -0.9421979 -0.77370054 0.018781222 0.16314003 0.33179456 0.1102216 0.4081552 0.03805055 0.1836512 -0.40223533 -0.42882794 0.23167247 0.2022047 0.31981415 0.12227484 0.239538 0.24963431 0.40090308 -0.21134874 -0.2627414 0.33219078 -0.07220699 -0.17830546 -0.19356452 -0.33468637 -0.3386371 -0.52829385 0.46244216 0.5560631 -0.22885723 0.52991426 0.36680266 0.4258549 -0.5794992 0.08024068 -0.10548092 0.07901147 -0.2103511 -0.24740657 0.37629896 0.052856814 0.35699254 -0.19342656 0.22187972 -0.26530927 -0.5820896 0.18026437 -0.6507982 0.26729104 0.3606948 0.2704899 -0.3104947 -0.23901801 0.7304222 0.06942366 0.2757846 -0.05006138 -0.016648041 0.16692503 0.3256708 -0.04973713 -0.22649871 0.077998415 -0.0534127 0.063668996 -0.114383034 -0.17582944 0.054932576 0.25024235 -0.13955906 -0.48618248 -0.07785049 0.57638615 0.054337632 0.21522442 -0.106297135 -0.0010524077 -0.69464505 -0.03508696 -0.6165617 -0.13013756 -0.14813466 0.17737009 0.27771762 -0.36217532 0.34865165 -0.00029462914 0.061513193 -0.36323252 0.13949876 -0.33652052 -0.07255547 0.17199282 0.255213 -0.1491092 -0.023720175 -0.57441235 0.2244823 0.44864765 -0.15184358 0.29393572 -0.04234176 0.22662757 -0.08432288 -0.20176782 0.06417113 -0.27516124 0.42296392 0.021611406 0.015354769 0.185585 0.004293437 -0.31042254 -0.086272664 -0.09291229
2600 -0.3274598 -0.12174244 -0.14121805 0.16502501 -0.22254051 0.47607714 0.2198743 -0.39353758 -0.3182764 -0.479114 0.010954704 -0.7808024 0.39926147 -0.5051989 -0.51193464 0.32749334 0.42435068 0.2846359 0.01255525 0.35636213 0.46038568 0.20188493 0.039281297 0.22931013 -0.097001284 0.38302672 0.112582594 -0.18649279 0.24573892 -0.3032876 0.40639558 -0.26293322 -0.18455085 0.34311822 -0.27682605 0.21218753 -0.08303533 -0.091921434 -0.29359794 -0.33569285 0.37780797 0.09328299 -0.4631821 -0.0051788804 -0.049308807 0.16803259 0.21946007 0.1690988 -0.27576184 0.39164823 -0.2939651 -0.12346806 0.25222713 0.056899536 -0.15658456 0.29209006 0.18456678 -0.5811204 0.15412451 0.18540964 -0.3204017 0.2718803 0.20564277 -0.14969309 -0.24967806 -0.021030163 0.70912576 -0.31325242 -0.4524037 -0.3337434 -0.09637197 -0.24608757 -0.014277499 0.13759749 -0.32077584 0.07501312 -0.4112138 -0.008058738 -0.07646862 0.16391027 -0.029898362 0.39511228 -0.29980198 -0.09277255 -0.037903123 0.10607008 -0.04687512 -0.04615411 -0.22993898 -0.01726729 -0.24269688 0.23447585 -0.6563203 -0.07221497 0.1857613 -0.18533671 -0.13591954 -1.0804965 0.10318975 -0.076904595 -0.37678018 -0.42082715 0.22580759 -0.19040467 -0.47234815 0.027832013 -0.22880165 0.11232595 0.23599973 -0.1215174 0.081738114 -0.0018074755 0.11200453 -0.19164233 -0.22132005 -0.17759967 -0.3010749 -0.33380416 0.21496809 0.25926608 0.13191922 0.009460721 0.17235728 0.26189837 0.16184795 -0.59573895 0.3129094 -0.3457171
2363 -0.26093918 0.027185796 -0.6880038 0.036444128 -0.15112872 0.113646686 0.47411445 -0.17677942 -0.40468046 -0.19619536 0.22052126 -0.63737375 -0.074976765 -0.64558697 -0.45640233 0.36367553 0.4270457 0.5119261 0.10498598 -0.46529275 0.3962409 0.09217283 -0.109686896 -0.13505119 0.41294786 -0.18683015 -0.07307677 0.27510545 -0.010054706 -0.2711592 0.42155033 -0.5367099 -0.08336053 0.21434015 -0.5611681 -0.21725108 -0.4643813 -0.09488113 -0.28702644 -0.50354487 0.54659855 0.24949199 -0.3898619 0.07095794 0.1641463 0.1290256 0.036350206 -0.3487026 -0.2023479 -0.06015042 -0.2395457 -0.21504176 0.05965387 -0.5643565 0.24012546 0.02087304 0.33051768 -0.24044342 -0.26488078 0.24239466 -0.3125894 0.13227446 0.23266214 -0.056178734 -0.02510591 0.23474412 0.14588974 -0.083676845 -0.39950272 -0.39399767 0.5480112 -0.17622049 -0.20525128 0.102614805 -0.010298072 0.25080296 -0.5132725 -0.07612975 0.023340331 0.14056478 0.19968963 -0.106814235 -0.26291573 -0.15181856 -0.10106478 -0.44343644 0.15698011 -0.38223886 -0.19920418 -0.3373853 -0.36894327 -0.115333654 -0.15231037 -0.14904341 0.020352194 0.11512857 -0.394028 -0.5339483 0.17906228 -0.16788681 -0.68954444 -0.028505698 -0.1871509 0.07819227 -0.5355581 -0.08228334 -0.39143425 -0.34593353 0.25491676 -0.08898178 0.31791487 0.24376084 -0.076137476 -0.12820174 -0.48502108 0.08533858 -0.6928904 -0.17602359 -0.3877483 0.25002098 0.2275663 0.2325053 0.18375103 -0.17180572 -0.3004147 -0.7129754 0.18997635 -0.22851366
1905 -0.414064 -0.16595265 0.17703323 0.3380774 0.09918203 0.37252215 0.25783876 -0.08703022 -0.4821938 -0.1661164 -0.29403564 -0.52367765 0.03550432 -0.72764003 -0.39871213 0.3143352 0.12654875 0.719662 0.2864795 -0.0106591005 -0.5264781 0.15506265 -0.37548003 -0.3163463 0.38386527 0.2566445 0.026761545 0.13818829 -0.18937784 -0.47166967 0.11207667 -0.85740584 -0.19270626 -0.33437625 -0.4153691 -0.28452244 -0.52548856 -0.21636832 0.16326831 -0.3614754 0.88473237 0.34063354 -0.010966771 0.3169474 0.5585107 0.55637467 -0.23158196 -0.019525547 -0.2637877 0.33140704 -0.06668355 0.021777205 0.5229089 -0.30710664 0.19117776 -0.38851196 0.4573434 -0.6135271 -0.032159373 -0.07219896 -0.10723294 0.042675305 -0.07877415 -0.5027019 -0.24652599 0.011924882 0.17502008 0.19653258 0.14084244 -0.2376992 -0.051046796 0.09203157 0.09838782 0.022739777 -0.22439893 0.19625553 -0.20623654 0.35591483 0.28654426 0.034163356 0.15011029 -0.04113248 -0.33155546 0.027479293 -0.31336552 0.32719424 0.080197215 -0.4860554 -0.2326871 0.025242977 0.19281296 0.4032752 0.026880182 -0.29675868 -0.49675927 -0.16004114 -0.21761386 -0.613442 -0.056686856 -0.18875602 -0.16027291 -0.17261541 -0.2808014 -0.6723745 -0.29568738 0.29593116 -0.39268476 -0.37558463 -0.063966155 0.018294586 0.3547565 -0.40618137 0.14333595 0.09675215 -0.56704265 0.07360433 -0.25789502 -0.4049119 0.01069732 -0.49917927 -0.2156388 -0.036433123 0.39561987 -0.13894537 -0.13487343 -0.4265153 0.63213456 0.014524665
1611 -0.3611606 -0.12300739 -0.06389441 -0.0054861447 0.08521287 0.5891068 0.15588179 -0.35974997 -0.10739959 -0.39865687 0.0042340113 -1.0085384 -0.4585221 -0.710904 -0.8687725 0.23464678 0.23570944 0.48123786 0.31111497 0.056182224 -0.1766004 -0.020497542 0.038185563 -0.39966565 0.39906573 0.20241383 0.49586615 -0.26733777 -0.056694146 -0.111363746 -0.03773359 -0.59332615 -0.37405327 0.059393752 -0.67853343 0.56387794 -0.4450289 0.11163833 -0.18939109 -0.43908188 0.45572546 0.22176033 -0.42811608 0.13656682 0.1822374 0.1766737 -0.036579456 0.38360095 -0.5166533 0.63496536 -0.008047504 0.1347948 -0.056417186 -0.54943717 0.15725741 -0.1691036 0.120435536 -0.41693395 -0.49141818 -0.26136312 -0.04233831 0.24216363 0.055721965 -0.54652774 -0.24964212 0.016338713 0.022160428 -0.0046694963 0.10564734 -0.3065962 0.27903306 0.12729937 -0.2008023 -0.012107113 -0.23150268 -0.027123993 0.022907227 0.21111947 -0.33799148 0.59379256 -0.08468013 0.32724276 -0.34253803 0.016252395 -0.19814196 -0.33495867 -0.028495755 -0.37603676 -0.15185907 0.027615836 -0.391001 0.5266274 0.18728085 0.51870674 -0.14087875 0.23664008 -0.4219306 -0.14607014 -0.044197734 -0.012421088 -0.23744819 -0.26194367 -0.2854505 -0.10004775 -0.07332015 0.56764954 -0.31389388 -0.04744709 0.2715508 -0.20791636 -0.018303882 -0.5491246 0.11712582 -0.2844772 -0.60855204 0.6045631 -0.42050973 0.051757958 0.22397284 -0.1632936 -0.027927568 0.006755565 -0.3383424 -0.016118033 0.0041894536 -0.6961103 0.18145454 0.048344202
141 -0.27357635 -0.116315134 0.2699338 0.08752538 -0.5311339 -0.097425215 0.29629543 -0.19891253 -0.5553324 0.17247352 -0.044906005 -0.41829926 -0.037983496 -0.40364832 -0.4774434 0.16872185 0.39795774 0.18962614 0.3560469 -0.16817553 -0.4897028 0.21338682 0.19301337 -0.41560704 0.34716913 0.53488344 0.31056383 -0.48539287 0.33160663 -0.5690467 0.037227426 -0.6105555 -0.2203956 0.059207935 -0.38397104 -0.14216587 -0.13544673 -0.14164653 -0.32448703 -0.10903206 0.32851216 0.19473828 -0.27960643 -0.17576274 0.5076081 0.23690578 -0.25698972 -0.034091357 -0.37809545 0.13138951 -0.26093245 -0.033880662 0.105748594 -0.33841306 -0.12542036 -0.05143549 0.29204097 -0.33657864 -0.21899518 -0.13135067 -0.05784895 0.3367276 0.32688153 -0.12433614 -0.20556785 0.28030875 0.24046572 0.27313682 -0.018127391 -0.5516481 0.17214733 -0.19819212 -0.14793238 -0.0007738651 -0.2670482 0.06303759 -0.076524496 -0.080922745 0.004352646 0.46920276 0.44171664 0.08343023 -0.40069488 -0.090799205 -0.051011868 0.1333642 0.5022216 -0.4679527 -0.27503207 -0.3583058 -0.047374483 0.26811862 -0.16981964 -0.41682962 0.28971285 -0.034577034 -0.64376545 -0.6925949 0.23673314 -0.27409163 -0.3177391 -0.613787 -0.097983286 -0.28899717 -0.28597748 0.46213225 -0.210739 0.121374354 -0.031294104 0.24217464 0.08099816 -0.18104024 0.048888426 0.07921453 -0.42027414 -0.06535271 -0.64487535 -0.15332222 0.024746256 -0.1860483 -0.019370366 0.20716688 0.08602404 0.26786163 0.14713404 -0.76873 0.22397327 -0.1150379
1807 -0.30714566 -0.09036506 -0.14772768 0.33572483 0.024751173 0.6212336 -0.07236505 -0.7308533 0.02217379 -0.2826579 0.38023046 -0.6374009 0.092730865 -0.84413254 -0.55085176 -0.003943408 0.6659307 0.3284795 0.29943055 0.070840955 -0.040347613 0.4870476 -0.16565566 -0.2756703 0.47180048 0.28413287 0.2689174 -0.09089094 0.29481095 -0.51008093 0.47782004 -0.5801277 -0.002887661 -0.13080636 -0.10525992 -0.009405265 -0.31872714 -0.10641743 -0.31563938 -0.23756859 0.33150133 0.47185028 -0.07544002 0.07085147 -0.20445292 0.20031722 0.016231505 -0.07200609 -0.34667757 0.3912864 0.2600065 0.08966503 0.41778943 -0.030761028 0.043838926 -0.07120635 -0.13142076 -0.21266492 -0.51033145 -0.5801211 0.18215354 -0.12634568 0.48926845 -0.27345234 -0.5123018 -0.32972297 0.4671298 0.10481007 0.4812797 -0.42173228 0.20789976 -0.22787069 -0.5110679 -0.17659564 8.180916e-05 0.29399002 -0.09433306 0.35460865 0.21387935 -0.1465183 0.39268863 0.20996468 -0.22692688 -0.37338 0.061366312 0.034008373 0.026580334 -0.56712794 -0.16438675 -0.41192067 -0.3817962 0.2615967 0.07443831 -0.49844065 0.054155882 0.51759154 -0.59075373 -0.38596532 -0.039266326 0.049696684 -0.0700011 0.113195755 -0.7115872 0.07935821 -0.33536413 0.2673196 -0.29534382 -0.25630713 -0.03210493 0.1948014 0.30363315 -0.18681633 -0.043990426 -0.28673384 -0.3611022 0.13512106 -0.21074574 -0.5562858 0.18236673 -0.39138314 -0.27804402 0.3951012 0.32622945 -0.044871967 -0.119133666 -0.1933181 0.07103991 -0.12625754
1110 -0.22059177 -0.13382678 0.13399647 0.0155164525 -0.3229151 0.33734083 0.17078584 -0.2766113 -0.0903337 -0.24081628 -0.08888891 -0.81185764 -0.264788 -0.44667253 -0.37935784 0.19964397 0.51776814 0.4884248 0.3457481 -0.14374904 -0.0022851625 0.2191264 -0.2471503 -0.36662078 0.16227475 0.30644265 0.45653942 0.1981811 -0.48963252 -0.43434483 0.47028604 -0.2614688 -0.33205172 0.15632644 -0.3536631 -0.004817169 -0.5553975 0.015156902 -0.50015205 -0.45980468 0.3404656 0.17833686 0.27981645 -0.040225983 0.3472206 0.308633 0.34373593 -0.5720798 -0.39798686 -0.012326472 -0.5166084 0.20125459 0.049443915 0.045478698 0.15430063 -0.23483457 -0.15590177 -0.3289039 -0.4649502 -0.37021515 -0.39223194 0.2917142 0.0443415 -0.243479 -0.2205879 0.019468103 -0.14016479 0.0025026752 0.14158307 -0.31134152 0.0037849974 -0.103106976 -0.4838849 0.13396066 0.33953822 0.048604343 -0.22782391 0.084555686 -0.41737664 0.51374614 0.25994846 0.0031790321 -0.44183686 -0.30920032 -0.015093273 0.18703952 0.3073242 -0.19367942 0.070026666 -0.0429513 -0.14825873 0.47871035 -0.10549471 0.16650246 -0.03671197 0.003369724 -0.16647696 -0.903361 0.09268704 0.5973802 -0.38459563 -0.32925567 -0.3406377 -0.10310836 -0.4289055 0.15290126 -0.40016046 -0.11423791 0.03976 0.020993704 0.18009084 -0.30720243 0.05741546 -0.27530888 -0.39060923 0.26698372 -0.26094478 -0.090132736 -0.13502134 -0.19080055 -0.36579302 0.062332608 -0.275237 0.12540224 -0.18950333 -0.31339353 0.25015298 -0.115090646
174 -0.27350456 0.03608444 -0.21767157 -0.19993998 -0.25672287 0.4663176 0.6456203 -0.23424461 0.07877909 -0.1848585 0.019751696 -0.6464331 0.14448623 -0.09250351 -0.36109832 0.19048737 0.23389015 0.5483085 -0.07396035 0.3315109 0.029666938 0.3332257 -0.026728986 -0.39339107 0.11302212 0.5326812 -0.13184349 0.20506372 0.42147684 0.23891105 0.22434859 -0.2338097 0.22698864 -0.4077546 0.134389 -0.2757654 -0.19560374 0.03519093 -0.3158818 -0.8405125 0.36822397 0.283717 0.018770589 0.310002 0.2561675 0.1861244 -0.014472866 0.24324027 -0.076460555 0.5094214 0.0030153475 0.039904747 -0.22519939 -0.108576536 0.18753561 -0.4911377 0.015260453 0.05592208 -0.16509205 0.07941531 0.052647024 -0.3771933 0.0924642 0.3209593 -0.27738485 0.09967582 0.41187388 -0.38090724 0.3844268 -0.06554067 0.78822917 -0.3447433 -0.05721753 -0.11590199 -0.17462987 0.38779342 -0.50664425 0.23146683 0.021751499 -0.084477745 -0.008760449 -0.1655334 -0.31869638 0.3100571 -0.49297896 0.0052119093 0.15623088 -0.3930767 -0.1765039 0.36978158 -0.18409799 0.32309255 -0.005386276 0.50896466 -0.2520575 0.015206522 -0.5217684 -0.75344294 0.18113592 0.21490341 0.016340284 -0.28120846 -0.18675062 -0.3059607 -0.2517565 0.11787584 0.1407974 -0.4837041 0.17695886 0.08136937 0.032477207 0.13607278 0.095093 -0.24403936 -0.089462236 0.06398045 -0.60934365 -0.06352955 0.286196 -0.39030397 0.33914074 0.61662084 0.02184417 0.17187922 -0.12120377 -0.49712184 0.106888205 0.37797007
2521 -0.4780607 0.07705307 0.22706452 -0.26921132 -0.131746 0.9899093 0.1710079 -0.15675609 -0.19706549 0.15671864 0.3587357 -0.16040577 -0.2662107 -0.6278423 -0.056178633 0.18070945 -0.08795253 0.78963405 0.37622875 0.2723077 -0.28062606 0.23687445 -0.15259175 -0.3388037 0.24459569 0.20808597 0.3188074 0.27478397 0.059325248 -0.37145075 0.90891296 -0.25160506 -0.098264225 0.26919523 -0.2047402 0.07893861 -0.085192904 -0.066245556 0.25546435 -0.14071186 0.5873923 0.47838494 -0.17256129 0.13751532 0.44484234 0.23575433 -0.40395477 -0.050404225 -0.5508723 -0.04540703 -0.060479533 -0.084895805 0.7975782 0.2736763 -0.17172499 -0.18133645 0.29211903 -0.42390522 -0.4589256 -0.4881004 -0.27923185 -0.025173962 0.14631464 0.38280517 -0.2762156 0.0022823946 0.255288 -0.5864699 0.73545575 -0.31308132 0.09933627 0.17252368 -0.16638835 -0.18276562 -0.19406778 0.021127399 -0.38857195 -0.2698411 0.40512615 0.37521133 0.09137901 -0.07629775 -0.5123193 0.05069762 0.13845138 -0.2686447 0.33063015 -0.102253966 0.42571083 -0.081702255 -0.379285 -0.30494052 -0.5499196 -0.119501494 -0.48457628 0.013661708 -0.035783738 -0.659473 -0.23991281 -0.09275321 -0.5258105 -0.296967 0.23887129 -0.24217509 -0.42160794 0.47146076 -0.008471064 -0.055469036 -0.099434346 -0.5341121 0.028073855 -0.38689408 -0.19401407 -0.24741246 -0.8115475 0.62833804 -0.19264282 -0.22393392 -0.19291162 -0.15599588 0.49066332 -0.24164268 0.12315776 0.060234345 -0.1343784 -0.35631362 -0.07770789 0.09857883
1792 -0.42501625 -0.02784523 -0.6816795 0.19989304 0.09580848 0.26068586 -0.22142163 0.053441525 -0.44652945 0.1888296 0.098369665 -0.56482744 -0.7414379 -0.7801752 -0.047588132 -0.18651298 0.013395827 0.4816061 0.25295195 0.4267079 -0.28310806 0.62005436 0.556105 -0.21803728 0.24857192 0.37709218 0.6098871 0.053580374 -0.010684794 -0.4345094 0.4307447 -0.1521558 0.18353312 -0.36364162 0.1336953 -0.03407959 -0.37212077 -0.10232347 -0.114953786 0.107111506 0.04445706 0.20085506 -0.32542548 0.014691609 0.28954893 0.52804184 -0.52559185 -0.1793538 -0.44621578 -0.022766704 -0.5817136 0.3176433 0.031583104 0.06161237 0.074012734 -0.12445044 0.29738766 0.116608754 -0.10769284 -0.07957836 -0.24901064 -0.09741184 0.02437124 -0.6044477 0.34069985 -0.36648417 0.29693362 -0.12382646 0.048548516 -0.18142694 0.3118088 -0.26888767 -0.41750923 -0.068135835 -0.06000073 0.18189198 -0.3083134 0.82916856 -0.27196214 0.22164764 0.31913665 0.07931028 -0.21384045 -0.64045537 -0.35284883 0.338792 -0.13484985 -0.3340027 0.14414702 -0.26523376 0.06603719 -0.20253514 0.06747918 0.2552209 -0.013099168 -0.13050838 -0.311255 -0.4443115 0.30234918 -0.5615519 -0.07521402 -0.10585861 -0.57784295 -0.35474405 -0.23574683 0.44624177 -0.07855983 -0.014808251 -0.2293421 -0.066728465 0.21567321 -0.3476748 0.034526303 -0.3065639 -0.34736776 -0.045045216 0.33514524 -0.32224792 -0.21954322 0.29800633 -0.20369175 -0.031879228 0.49509934 0.35633075 -0.43672606 -0.20992184 -0.4179237 -0.024211952
1675 -0.15138154 -0.21232747 -0.46668682 -0.0963683 -0.08894142 0.29597878 0.15423788 -0.50099903 -0.34672448 -0.17327593 0.35669157 -0.8365161 -0.37339035 -0.7254599 -0.7668412 0.31642935 0.479418 0.16084728 0.38671443 0.00058270793 0.09219365 0.40561888 -0.31783178 -0.18250395 0.14935714 0.2475118 0.18221925 -0.22180127 -0.272001 -0.001100508 0.3587703 -0.3912484 0.019474346 0.25923872 -0.21554925 0.103678316 -0.36071014 -0.33706796 -0.15148087 -0.48095968 0.48439312 0.5032412 -0.058263708 0.114136055 0.16380261 0.57258517 -0.01105934 0.18149063 -0.5095292 0.33865944 -0.013039903 0.025928663 0.027672162 -0.20497274 0.43063146 -0.2838455 0.0047069793 -0.2672733 -0.24373864 -0.13563393 0.0033129186 0.20803739 0.42431873 -0.09254138 -0.056492306 0.36752534 0.03067265 -0.12378235 -0.07168745 -0.41053852 0.3817118 -0.4058703 -0.5595721 0.0188404 -0.10087147 0.20695871 -0.42828155 0.29832378 -0.108366035 0.27784157 -0.07403711 0.3353497 -0.21486945 -0.29891592 0.02672215 -0.13361529 0.05160495 -0.5231337 -0.10441343 -0.12000411 -0.1930972 -0.0018244487 -0.094076864 0.16735765 -0.060924657 0.10145943 -0.27921855 -0.33034888 -0.19431935 -0.069248885 -0.20317602 0.13689531 -0.42367753 -0.2369693 -0.1605547 0.61781543 -0.051512618 0.27224123 0.15012488 0.0026352534 -0.116448484 -0.4074878 0.0326514 0.052399687 -0.6418746 0.37975928 -0.1945187 -0.1027653 0.07447527 -0.53535867 -0.17882717 -0.2455254 -0.07336014 -0.035029616 -0.21805938 -0.41079536 -0.059717245 0.11957714
1334 -0.450807 -0.015936913 0.04541758 0.15023367 -0.15470338 0.7042047 0.31050792 -0.4176272 -0.19926362 -0.15002522 -0.11716704 -0.5150317 0.25100443 -0.7608062 -0.75163925 -0.059074767 0.2673776 0.50068223 0.42661008 -0.48250586 0.106599025 0.4197772 -0.22266391 -0.18619592 0.33334586 0.48367137 0.40939236 0.04155623 -0.08602983 -0.43241018 0.1030505 -0.19278142 -0.36930454 0.090107396 -0.5049893 0.13091822 -0.31710148 -0.05397991 -0.43909112 -0.21999645 0.63060075 -0.03335689 -0.12573943 -0.4372451 -0.20342745 0.06615272 -0.26071393 -0.32816547 -0.37005445 0.20765282 0.21728367 0.41047546 0.013107377 -0.44639435 0.053586286 -0.26583102 0.1555385 -0.17861547 -0.45844975 -0.6493198 -0.38401425 0.34943047 -0.086362295 0.0009002072 -0.09874556 -0.039150845 -0.058404893 0.009315072 0.2779561 -0.49001247 0.12291556 -0.14302157 -0.6154432 -0.05270741 0.10523754 0.23388956 -0.47420192 0.15149063 -0.37968957 0.1375441 -0.034512658 0.22925563 -0.2162296 -0.26476592 -0.044177547 0.120654084 -0.229858 -0.6582802 -0.06631598 -0.22274016 -0.3034575 -0.24196877 -0.1254826 0.15074372 -0.25228456 0.036604393 -0.30941316 -0.87975305 0.2719654 0.42568412 -0.029275857 -0.43145755 -0.38528314 -0.22747734 -0.08392388 0.46058097 0.081442825 0.005444963 -0.17722178 0.17411059 -0.039018136 0.06995287 0.32725465 0.10750457 -0.5394801 0.055140395 -0.20403951 -0.110317715 -0.094632074 -0.45018026 -0.01382101 0.24925627 -0.04659231 0.3870981 -0.033229955 -0.46342543 0.30420104 -0.2666424
813 -0.117723055 -0.070280075 -0.123185806 0.2553117 -0.2736456 0.35259932 -0.027560776 0.020743988 -0.26330632 -0.31211975 0.1429149 -0.8709315 -0.13084665 -0.519465 -0.59970456 0.37230834 0.36054915 0.14845298 0.5803626 -0.29724106 0.28989312 0.08755956 0.10895332 -0.4926153 0.22047867 -0.049489517 0.8237156 0.13043833 0.09791635 -0.26269135 0.32765633 -0.6544635 -0.049709793 -0.03398048 -0.4350068 -0.24320124 -0.3750481 -0.017779412 0.19867 -0.53698 0.29568425 0.38938856 -0.028582243 0.10387831 -0.012197058 0.33513397 -0.13486661 -0.053130526 -0.1819889 0.21661122 0.2040153 -0.46396312 0.42552534 -0.27716503 -0.2762263 -0.61783063 -0.08906322 -0.05562462 -0.27733734 -0.33065873 0.029418102 0.2583022 0.15071848 -0.01171112 -0.26466644 0.09873826 0.08129409 0.018176014 0.37585372 -0.3492501 -0.05300801 0.06952933 -0.40606302 -0.040304255 -0.10883077 -0.09024878 -0.7383939 0.31996235 0.023974722 0.17348416 0.032902982 0.2645912 -0.0037416054 -0.3554724 -0.152038 -0.13169159 0.5400273 0.05597954 -0.18343629 -0.19813778 -0.027761754 0.4630207 -0.09200025 -0.25811636 0.0990537 -0.27101642 -0.46573314 -0.4876094 0.043900345 -0.11489665 -0.1293515 -0.48574188 -0.39747342 -0.1987418 -0.6362718 0.06130438 -0.14269951 0.32995296 -0.046934407 0.07974129 -0.0004111387 -0.2906077 0.30037057 0.04238049 -0.6230337 0.10355225 -0.09867182 -0.53945243 -0.30201748 -0.10763622 0.46059716 -0.057584986 0.18569863 0.28691432 -0.13536301 -0.34582585 -0.16503404 -0.08412474
1799 -0.49976948 0.050296467 -0.16063535 -0.18598606 -0.19208647 0.23347728 -0.06475989 -0.13603543 -0.2526343 0.4489156 -0.02410462 -0.499394 -0.16243754 -0.9879111 -0.79916084 0.65784603 0.36826932 0.16031031 0.29998443 -0.066164464 0.10846774 0.3116945 0.09114313 -0.258691 -0.07742527 0.97435766 0.6455357 0.06430973 0.04175375 -0.29630706 0.36253405 -0.29869586 0.015524185 0.25360236 -0.09822318 -0.14589526 -0.60218066 -0.25152597 -0.30630463 -0.51521605 0.047752157 0.9534118 0.47600353 0.1334207 0.3311707 0.42917117 -0.17692016 -0.15324381 -0.39716598 0.23986322 0.52078253 -0.21261513 0.012836649 0.22038364 -0.032701027 -0.048501372 -0.15574181 -0.008099621 -0.37013024 -0.5326337 -0.49294034 0.30691552 0.03457027 -0.2871763 0.05789192 0.3414777 0.43194982 -0.039155155 0.2840927 -0.5634159 0.028530963 -0.45723423 -0.6166255 -0.40711308 0.26746795 0.48160827 -0.37303132 -0.062578544 0.04209214 0.34462595 0.0741455 0.3955059 -0.34143084 -0.4911852 -0.61789453 -0.10335074 0.29759753 -0.21917504 -0.20350112 -0.22206172 -0.40060547 0.048143595 0.18776874 -0.30045575 0.19907826 -0.11382778 -0.09553968 -0.6945871 0.041287705 0.2149986 -0.21610662 -0.03615725 0.14552891 -0.34312344 -0.15174623 0.2736077 -0.2556992 -0.061624896 0.09357129 0.19817577 0.044758596 -0.1568994 0.011702322 -0.24368167 -0.6908931 0.0036032097 -0.10964651 -0.33744067 0.11676793 0.0060886503 0.004028975 0.18676576 0.3646039 0.13624197 -0.19190884 -0.57646763 0.14560547 -0.15528324
1943 -0.1172371 0.03025766 -0.19840392 0.18267424 -0.5651627 0.59930277 -0.1328112 0.02387823 -0.5981127 0.010210952 0.033042084 -0.6442886 0.5107681 -0.790336 -1.1383408 0.30639043 0.030436708 0.45092872 0.48336306 -0.019229723 -0.18451585 0.38749158 -0.14090158 -0.2596823 0.19529492 0.24499933 0.24163537 -0.0027004287 0.17322592 -0.17718145 0.07018333 -0.3591415 0.3367408 -0.037984483 -0.48296234 -0.21053745 -0.57296115 -0.11491383 -0.10349949 -0.4135722 0.48046118 0.20411277 -0.347554 -0.17401771 -0.07677413 0.34423807 -0.46457946 -0.0045308103 -0.62422484 0.5614018 0.31844717 0.02085906 0.036555786 -0.46865898 -0.031519353 -0.026510825 0.1544322 -0.32815778 -0.4599798 -0.4121179 -0.1420111 0.3896273 -0.13849154 -0.122994184 0.062421862 0.15811418 -0.15298985 0.115945816 0.32617462 -0.24102998 0.1648149 -0.49527016 -0.2881907 0.05571994 0.012563364 0.087474525 -0.44944495 0.27883008 -0.24379277 0.094145626 0.068975106 -0.04066702 -0.41158494 -0.30964312 0.078001976 -0.07385117 -0.19214089 -0.4926738 -0.15997812 -0.23248379 -0.3370359 -0.3662358 -0.60957384 -0.0018817089 0.041187078 -0.19435763 -0.26918495 -0.68018967 0.31290716 0.26678 -0.030429728 -0.46299738 -0.35200337 -0.3502432 -0.17007513 0.01719046 0.3822697 0.01453861 -0.028668769 0.065899625 -0.3448448 0.18019003 0.15660106 0.24117015 -0.009367975 0.09882765 -0.3277169 -0.065180086 -0.50407255 -0.06238865 0.15606375 -0.14206347 0.018257782 0.44630578 0.14233458 -0.41708082 0.071701966 -0.11371961
2077 -0.49371842 0.15731718 -0.40846315 0.13466737 -0.024537124 0.86749065 0.09213746 -0.44882196 -0.18798384 -0.38588154 0.20806332 -0.50279874 -0.5252429 -0.55506986 -0.51873237 0.51687807 0.016155902 0.36250624 0.10140626 0.05289712 0.04461483 0.22345392 -0.32559308 -0.2717674 0.28724432 1.077444 0.21564804 -0.32285663 -0.18637909 -0.14967893 0.28950396 -0.49367982 0.15994641 0.019009482 -0.40649313 0.3192098 -0.31054306 -0.1649887 0.19143896 -0.6245186 0.7617638 0.35038638 0.011588616 0.10379492 0.16024837 0.12940523 0.30313027 -0.3582804 0.02613237 0.44491374 0.020507993 -0.17282526 0.36720937 0.1943732 0.24163207 -0.16626213 0.29323062 0.16520208 -0.055739332 -0.41513488 -0.22836818 0.27276823 0.070328645 -0.43430328 0.0838618 -0.269178 0.47789577 0.37185958 -0.011525364 -0.31451917 -0.15964143 -0.5135171 -0.20525987 -0.2830273 0.082444355 -0.36900616 -0.5848665 0.079466484 -0.0033936675 0.10602866 0.47350976 0.25319716 -0.8494021 -0.38720965 -0.31032807 -0.24391963 -0.14895089 -0.7175306 -0.2728115 0.22208995 -0.17598552 0.12053382 0.048097882 -0.26038337 -0.02846395 -0.09265192 -0.61405563 -0.6477383 0.17527102 -0.109053075 -0.14652157 -0.16993065 -0.15064509 -0.19868305 -0.0561069 0.3946622 0.1520718 -0.016111953 0.06833651 0.23357189 0.051069185 -0.31009904 0.20976639 0.12356177 -0.5227889 0.14700489 -0.38564032 -0.39181706 -0.17329592 -0.36101875 0.5089264 0.33019626 0.013845232 -0.09319871 -0.072582655 -0.36581197 0.12595864 0.07488148
765 -0.2624594 0.118649006 -0.039494477 0.25430846 -0.16211696 0.22968554 0.12310144 -0.0480545 -0.3058754 -0.05281209 0.07386761 -0.571439 -0.13304934 -0.54046506 -0.49632373 0.35687596 0.26857302 0.83046687 0.2825164 0.22941452 -0.11311966 0.47315183 -0.07188644 -0.23370542 0.3120494 0.48350966 0.34570876 -0.20902596 0.30354646 -0.19420418 0.14754649 -0.35850346 0.16374958 -0.015744897 -0.2770013 -0.17389652 -0.51934814 -0.3122079 0.03343578 -0.37013623 0.51847196 0.43035406 -0.07943816 0.32379854 -0.03417053 0.38473004 -0.07199997 -0.14954664 -0.34915426 0.3591269 -0.12900338 0.12393501 0.19066313 0.004365111 -0.024383198 -0.06464401 0.057551578 -0.17487186 0.056021012 -0.3955918 -0.27800572 0.34975964 0.15785974 -0.37542382 -0.22668794 -0.023603395 0.3648939 -0.07127609 -0.06889628 -0.25504172 0.012914422 0.08424029 -0.35575765 -0.09577692 -0.06244349 0.009812925 -0.33297664 0.26566887 0.04549223 0.31372422 0.16985287 -0.12870967 -0.16869421 -0.066100426 -0.24798374 0.023024881 0.2967673 -0.59489447 -0.13040087 0.057545777 0.019017296 -0.035695057 -0.23857273 -0.10161425 -0.033830635 -0.14500262 -0.26350504 -0.6427479 -0.045443226 -0.24960086 -0.158315 -0.15168004 -0.10720527 -0.1816608 -0.18662997 0.42047644 0.07641551 0.11439731 0.011560606 -0.17491013 0.27324298 0.07694721 0.13954255 0.009937023 -0.5935531 -0.041743845 0.038264595 -0.08955917 -0.0013303006 -0.21038981 0.22586127 -0.05885388 0.12446942 -0.12269172 0.17387065 -0.4486675 0.23390801 -0.17330933
769 -0.07868371 -0.15770267 0.09250416 -0.11816465 0.20394617 0.53736985 0.28111103 -0.46921366 -0.4743493 -0.32475433 0.18236956 -0.46347103 -0.17634696 -0.4723894 -0.9670988 0.19569536 0.103367634 0.7380597 0.2898564 -0.07300102 0.18861635 0.4605876 -0.22582562 -0.3229862 0.8123834 0.7296874 0.3746804 -0.122533 0.049219623 -0.4218095 0.11684226 -0.31255656 -0.110763766 -0.13988818 -0.4551205 -0.09961616 -0.20335715 0.07254034 -0.15274215 -0.4545641 0.5548303 0.3939447 -0.009620283 -0.11316685 0.06278326 0.4060502 -0.12533714 0.043209214 -0.30382475 0.017367244 0.21402997 -0.20476641 0.44073758 0.25726876 0.34580317 -0.18919533 0.089785375 -0.49044627 -0.19858675 -0.5375699 -0.10338237 0.38639626 0.025544403 -0.33731508 -0.118566774 -0.4186853 0.3812675 0.45523325 0.07692481 0.035472434 0.08568711 0.18604155 -0.3218471 -0.3911142 -0.35448548 0.31220636 -0.5440555 -0.026463106 0.1244965 0.020196872 0.11710714 0.09691053 0.070053734 -0.36422393 -0.013156695 -0.1509689 0.31417724 -0.57650787 -0.114843816 0.030446624 0.0428138 0.16138087 -0.17348768 0.24936166 -0.3222914 -0.07035011 -0.21184865 -0.5983442 -0.07036912 0.13023923 -0.40948153 -0.18021092 -0.27774948 -0.072293796 -0.0869662 -0.07318327 -0.11507306 -0.33024055 0.109359086 0.3116663 -0.12036725 -0.15764074 0.0528856 -0.04282949 -0.2385451 -0.038888987 -0.15423095 0.0484649 -0.02698188 -0.04039747 0.20493968 0.12111967 -0.281547 -0.07650583 0.117609784 -0.34518412 -0.30766955 0.03175275
781 -0.08330609 -0.026697626 0.03417634 -0.066782095 -0.7077783 0.07236427 0.38528833 -0.22961108 -0.49568927 0.21751857 0.2994423 -0.33641484 0.11231548 -0.7156725 -0.46667892 0.21292813 0.09737747 0.17100602 0.38026893 0.002013796 -0.21844795 0.41271028 -0.11212407 -0.33235046 0.3909334 0.29044205 0.20697634 -0.41903874 0.22003536 -0.7738641 0.06288684 -0.48792264 0.117726505 -0.26399556 0.028840616 -0.23187578 -0.39907962 -0.4700462 -0.21016972 0.10905079 0.3138718 0.5647477 -0.0044713947 0.047927197 0.52204573 0.40594915 -0.2889049 -0.08271514 -0.33554485 0.35909197 -0.07804871 0.07584028 0.44518143 -0.3158615 0.07336884 -0.20588091 0.3306956 -0.4683639 -0.29283834 -0.14309323 -0.3726403 0.19269444 0.52778107 -0.42287996 -0.04556097 0.12244332 0.29965255 0.16699375 0.0618497 -0.30247885 0.3938015 -0.20544809 0.07739776 -0.20475546 -0.23633713 -0.12707426 -0.40805393 0.17570241 0.151129 0.13384444 0.12845531 0.11736418 -0.31110278 -0.2878309 0.1092729 -0.2224731 0.4641491 -0.5029293 -0.5907807 -0.4170975 0.15467703 0.16875026 -0.3405883 -0.095837064 0.3423469 -0.22732715 -0.18202473 -0.54076517 0.047144476 -0.010045587 -0.24231069 -0.36003697 -0.47929212 -0.3282824 -0.38473868 0.4640746 0.05153275 -0.09217543 -0.023475448 0.4936816 0.14052771 -0.045700025 -0.06665513 -0.19086632 -0.3380728 0.27361494 -0.24517524 0.0034746716 -0.03783615 -0.06526275 0.18465364 0.31611535 -0.1085071 0.23377275 -0.18998738 -0.53937066 0.3134485 -0.099475265
940 -0.09466645 0.2056681 -0.02497468 0.35267884 -0.31716368 0.33060384 -0.10537262 0.002411499 -0.491852 0.10562136 -0.35640907 -0.34394145 -0.22846048 -0.34045598 -0.551517 0.51104945 0.10137686 0.35995406 -0.14131379 0.21624652 -0.13417459 0.51274514 -0.077149324 -0.35816756 0.20114195 0.347531 0.49218208 -0.21314347 0.09745636 -0.3875225 -0.06193088 -0.5711189 0.115269616 -0.45800713 0.06091043 0.027284086 -0.21015231 -0.057535976 -0.24663712 -0.3106156 0.5052015 0.25603917 -0.24764194 0.18768468 -0.09023011 0.0067435005 -0.06503871 0.078198954 -0.08191127 0.5085089 0.05893619 -0.29504114 0.36082038 -0.48351344 -0.16954143 -0.14511387 0.3056095 -0.11502021 -0.30500785 -0.33920348 0.1280439 0.63707846 -0.06567278 -0.6087764 -0.1499244 0.17372286 0.13352221 0.13594481 0.42769104 -0.105572365 0.4395887 -0.11986647 -0.28659704 -0.13009849 0.119674474 0.16951655 -0.20744804 0.12802517 0.07656215 0.70260304 0.083670534 -0.31504762 -0.32063717 -0.27427778 0.14041333 -0.14534679 0.24390788 -0.29817498 -0.12227514 -0.35433125 -0.41372997 0.025501953 -0.14455675 -0.44811845 -0.29279342 -0.065824464 0.017483758 -0.94913363 0.177459 -0.11697498 -0.32284066 -0.43207794 -0.27096745 -0.5005629 -0.44336882 0.2211042 -0.3732236 -0.13521951 0.03684114 0.26876467 -0.038600065 0.113503665 -0.15534368 -0.28787228 -0.62140244 0.021760449 -0.1966282 -0.036833446 0.25438768 -0.34325543 -0.13550436 0.024190519 0.18787748 0.36562493 -0.3753877 -0.553325 0.19909659 -0.14640246
942 -0.3766184 -0.21545976 -0.23286705 -0.03170763 -0.21383879 0.4543563 0.2560838 -0.51702595 -0.12861627 -0.21971075 0.3619725 -0.76202303 -0.13020276 -0.8916532 -0.8025747 0.19687922 0.6226521 0.517858 0.32902968 -0.16822627 -0.09657067 0.17395358 -0.4358131 -0.23356855 0.42182514 0.4553889 0.44552544 -0.1629321 -0.39658293 -0.07315034 0.24456793 -0.54861313 -0.09616033 0.05163646 -0.23634313 0.32350868 -0.05339825 -0.32199284 -0.34993583 -0.6518923 0.5408583 0.29775384 0.016165324 0.08136182 0.22614735 0.278952 -0.1850727 -0.096874684 -0.42168072 0.47994956 -0.06132326 -0.076065175 -0.17908251 -0.25898722 0.41983265 -0.30600846 0.051676165 -0.11970064 -0.1831278 -0.12515882 -0.24891122 0.104220375 0.1178262 -0.26627836 0.103461996 0.12744413 0.19072424 -0.3208034 0.16425434 -0.3211562 0.26182783 -0.24029396 -0.21717724 -0.10906672 -0.25633478 0.10266515 0.009223723 0.2389129 -0.20390214 0.19007662 0.111667216 -0.012431912 -0.13999712 -0.22064872 -0.09663046 0.1520676 0.1217889 -0.60871774 -0.25994137 0.1689284 0.098098546 0.21124879 -0.14443038 0.15892895 -0.17761296 -0.1786513 -0.7296307 -0.38114756 -0.077424355 0.04339848 -0.37536862 -0.11667784 -0.29815975 -0.3126232 -0.16245164 0.4478455 -0.2167204 0.12700516 -0.1416575 -0.030576311 -0.113084264 -0.24273056 -0.22148675 -0.017329972 -0.58552074 0.3256916 -0.39172608 0.08335078 -0.058578636 -0.18317002 -0.01342581 -0.14429535 -0.3446891 0.022389812 0.013723461 -0.26234832 -0.051872242 -0.01732482
1590 -0.23555344 -0.08356476 0.3403886 0.22744103 -0.059584744 0.32490048 0.04614528 -0.40666458 -0.5485792 -0.12556419 0.00044034602 -0.7260944 -0.39806998 -0.40674663 -0.8178671 0.23881793 0.18993175 0.33275753 0.11085117 0.02482674 0.07057881 0.26099816 -0.1892484 -0.3282511 0.1835749 0.1900993 0.41892385 0.26804712 0.4074349 -0.3410485 0.6258782 -0.5126326 -0.039490663 0.03695777 -0.14861012 -0.28125602 -0.26057285 -0.44093543 -0.21516423 -0.12959692 0.79405904 0.14607476 -0.16376719 0.15732077 0.24769872 0.41073346 -0.24640046 -0.24427296 -0.099509045 0.52684575 0.20686202 -0.3695708 0.43729 -0.3556189 0.18233891 -0.107381366 -0.18936335 -0.38487953 0.046025593 -0.49079904 0.21882807 0.35019386 -0.007042027 -0.25232205 0.18199654 -0.16531412 0.25424102 -0.030642875 -0.18298578 -0.3447276 0.21799268 0.02798469 -0.39313057 -0.4799678 -0.012047078 0.16477354 -0.7091125 0.14272432 0.32013443 0.11730402 0.17828144 0.0668232 -0.40397608 -0.6188006 0.12592019 -0.01519154 0.34106198 -0.16131169 0.09041597 0.15176916 0.04072639 0.29036388 -0.2087263 0.3174289 -0.02884196 0.06901666 -0.20835263 -0.4475826 -0.37019882 -0.1277451 -0.4298357 -0.793903 -0.09011621 -0.21045564 0.12117822 0.011661805 -0.32241428 0.074086756 0.14485465 0.12419642 0.0024344486 -0.32443947 0.025880616 -0.061787523 -0.21209534 -0.068665035 -0.060648162 -0.17815934 0.023995413 0.02351086 0.26000825 -0.09255474 -0.0752451 -0.07462602 0.31240043 -0.2778348 -0.2431293 -0.12383889
1734 -0.6094899 0.0017660441 -0.04861627 0.04569448 -0.16622163 0.23506884 0.470703 -0.018281652 0.36342514 0.06560055 -0.32048208 -0.88787 -0.32181504 -0.19718735 -0.23428364 0.16996785 0.21012776 0.4399459 0.08403605 0.24310946 0.6375706 0.14858326 -0.056825265 -0.28534785 0.09790285 0.3623132 0.84620935 -0.0019919258 -0.562276 -0.39907187 0.55213064 -0.24672732 -0.03478416 0.24007604 -0.3507654 0.19843367 -0.54414725 0.32392034 0.045060027 -0.45853963 0.5168355 0.17244075 -0.026272425 -0.034277413 0.17005633 0.04581311 0.10346378 -0.22966868 -0.43034884 0.29026198 -0.14656875 0.49624655 0.33240864 -0.20314941 0.11047559 -0.16065228 -0.8101461 -0.18091302 -0.08449181 -0.50002253 -0.019603336 0.24250965 0.19467407 0.18071994 -0.35204554 0.10382727 0.15722159 0.29122907 0.00524781 -0.77219874 0.12221497 -0.24013194 -0.16263455 0.18254213 -0.53391576 0.009516631 -0.5390961 0.18975556 -0.03432309 0.46719348 0.25824913 -0.2907389 -0.594262 -0.41475528 0.17230983 0.008052846 0.1662329 -0.03969959 -0.42696476 -0.39214516 -0.2614727 0.31860277 0.27617416 -0.03803471 -0.2832754 -0.18995777 0.073532306 -0.5231387 -0.22284494 0.3526421 -0.5871466 0.26055345 -0.6119505 -0.18232328 -0.35494307 0.27133155 -0.10224649 -0.42267048 0.40407833 -0.024520064 -0.16185023 0.19770052 0.0375089 0.29572538 -0.5541297 0.045428403 -0.11722195 0.30993003 0.042014483 -0.5964058 -0.3002288 0.15216787 -0.07022512 0.46981806 -0.035798103 0.025949217 0.21524984 0.33494142
1872 -0.39007527 0.09683149 -0.25650874 0.050843753 -0.41396743 0.4191598 -0.17970219 -0.517032 -0.42676735 -0.17942317 0.34735408 -0.5132448 0.23405844 -0.44513398 -0.6801339 0.36187276 0.48414114 0.41253737 0.099698044 -0.31862107 -0.08906946 0.3408868 -0.26715398 -0.19392817 0.37905577 0.57972926 0.28735834 0.29116505 -0.22075666 -0.35763252 0.02815989 -0.6986855 0.07253121 0.19981562 -0.5354322 -0.19524787 -0.59152013 -0.027329626 -0.29676008 -0.2414936 0.34112912 0.17926271 -0.34453094 -0.2268557 -0.41737115 0.5879143 -0.61955017 -0.07390581 -0.32627898 0.24555255 0.5230053 0.036707196 -0.16031924 -0.3140488 0.08970414 -0.1285872 0.0504691 -0.08202297 -0.39815655 -0.39837858 -0.48531675 0.28295794 0.06290055 -0.28029636 -0.04999965 0.3354848 0.17151241 0.06960592 0.26280698 -0.04313605 0.67243814 -0.25299317 -0.31489646 -0.19508673 -0.05398392 -0.32937482 -0.33857548 -0.052309763 -0.20027457 0.014941374 0.10571191 0.014665882 -0.4372504 -0.23973297 0.25278777 0.016853152 0.05935926 -0.5038238 0.18824275 -0.22442624 -0.29261887 -0.10622027 -0.27662852 -0.043943882 -0.1937219 0.1060883 -0.41277805 -0.5600559 0.077294745 -0.16261798 -0.049198397 -0.2646884 -0.63832444 -0.089014016 -0.4672666 0.49638763 -0.030911012 0.20320903 0.09729942 0.16416416 -0.1407692 0.14473756 0.016525429 0.14196725 -0.09165519 -0.18582228 -0.4629234 -0.2613554 -0.52604467 -0.56430805 -0.0321996 0.020515133 -0.14769372 0.18243077 -0.08796228 -0.5743303 0.24999976 -0.06131436
2286 -0.3961254 -0.03710999 -0.1749324 0.119792566 -0.262399 0.530868 -0.22926946 -0.4348599 -0.21081331 0.20705388 0.22485869 -0.45771277 -0.13894455 -0.70196164 -0.34145918 0.5620004 -0.25932825 0.86041206 0.20504858 0.1792619 -0.103061564 -0.09833248 -0.32822198 -0.33448386 0.24352954 0.3328758 0.5928609 -0.11997503 -0.16628848 -0.47844484 0.27406222 -0.18365689 -0.16121937 0.04934326 -0.49609724 -0.052273575 -0.58002084 0.078177966 0.3090495 -0.6575711 0.6910316 0.71481144 0.055195797 0.091657996 0.44461635 0.0058207647 -0.25842568 0.030130476 -0.27673194 0.27247065 0.033904318 0.15864389 0.24134934 -0.010046935 -0.12105583 0.15438437 0.08882058 -0.37136328 -0.3301083 -0.6365164 -0.25087175 0.08187068 0.21175396 0.027520176 0.02407775 -0.2408546 0.31535342 -0.3169757 0.2020443 -0.43383145 0.28736085 -0.3141729 -0.21229218 -0.3553907 -0.2983811 0.32573837 -0.17278163 0.20038399 0.06979525 0.16944565 0.09385392 -0.03443053 -0.3062367 -0.21048796 -0.0039005966 -0.2265797 0.24989066 -0.34930965 -0.41798416 -0.2372096 -0.13559614 -0.0058765775 -0.0774032 0.10143791 -0.3149483 -0.37249306 -0.41167548 -0.7712181 -0.022817584 0.34757778 -0.39454862 -0.051158767 -0.13723864 -0.32066873 -0.25107074 0.36809045 -0.1037534 -0.17215805 0.23519476 -0.3217446 0.017608587 -0.18879265 -0.21633743 -0.3312507 -0.2598361 0.19387907 -0.42806008 -0.22270505 -0.14036365 -0.27883762 0.5675112 -0.07009803 0.21419519 0.4128732 -0.23720104 -0.30706346 0.08392198 0.18818983
390 -0.18900372 0.15139583 -0.02798028 0.15441296 -0.40684125 0.36110473 -0.34021613 -0.32177132 0.0024479846 -0.2229376 0.22690624 -0.732482 -0.042163912 -0.68383676 -0.092145 0.28898388 -0.04037323 0.94360095 0.3037349 0.1252203 -0.03445197 -0.069158435 -0.074037485 -0.4686022 0.18161921 0.33657268 0.25900218 0.046416383 -0.26085344 -0.65304404 0.405615 -0.11673177 -0.18980044 -0.02296657 -0.29185516 0.15332435 -0.3258441 -0.12509793 0.07463119 -0.54065895 0.72501874 0.64065707 -0.07468242 0.03693343 0.27168974 0.08241638 -0.2557338 -0.0015476565 -0.45268813 0.22567934 0.06104635 0.023868466 0.4031671 0.0045798025 -0.12543082 -0.080125794 0.1940219 -0.18134245 -0.3035726 -0.22217363 -0.35587385 0.25588483 0.24901012 0.029316299 -0.080192834 -0.023574641 0.41081464 -0.19577236 0.22283868 -0.26564172 0.4046008 -0.05737466 -0.1846692 -0.18102719 -0.15141536 0.013539224 -0.16018781 -0.1170965 -0.009101513 0.20397218 0.12360759 -0.067383744 -0.31205934 -0.109021924 0.20277707 -0.18853733 0.44821745 -0.34142008 -0.3809889 -0.34368202 -0.059417255 0.2765118 0.11041797 -0.10558246 -0.1591438 -0.06621399 -0.24985157 -0.5087121 0.033260316 0.14696266 -0.25499988 -0.27828333 -0.088593274 -0.5926896 -0.1896241 0.34633434 0.11854755 -0.23524964 -0.17189713 -0.058143742 0.34106895 -0.31021497 -0.2011316 -0.28130913 -0.38778862 0.33066297 -0.22283936 -0.41590828 -0.2579058 -0.18395677 0.33774394 -0.16985266 0.21852776 0.4568652 -0.14883795 -0.39177617 0.13456126 0.2040076
1717 -0.6379977 -0.2913527 0.23854479 0.56569004 -0.094573244 0.4420879 0.18687312 -0.012150368 -0.12630382 -0.18385147 -0.118874125 -1.2586517 -0.20485236 -0.8222482 -0.47199777 0.2460323 0.27062675 0.7010201 0.21646196 0.152195 0.095226936 0.27328044 -0.11437458 -0.2969969 0.325344 0.354837 0.28947666 -0.3080766 0.22826211 -0.49312332 -0.27648243 -0.5366058 -0.31340656 0.1927207 -0.30303162 0.021599641 -0.6439364 -0.069368474 -0.3450235 -0.59751225 0.35566077 0.012874573 -0.223011 0.27100188 0.22834164 -0.04283855 -0.3136334 0.012057716 -0.6730781 0.23648499 0.09973161 0.15726358 0.17528765 -0.26631513 0.29815558 -0.06803907 -0.05201038 -0.29214823 -0.5448324 -0.34947434 0.0829037 -0.07026899 -0.0004938489 -0.3419128 0.09975442 0.14080384 -0.0065866066 0.1308155 0.4072548 0.032895856 0.1580469 -0.11988923 -0.2235598 -0.16643101 0.0919372 0.11733231 0.019015372 -0.019003343 -0.13169625 0.33886692 0.08845389 0.29266503 -0.3239663 -0.16399285 -0.30007264 -0.038788337 -0.076565474 -0.33021545 -0.043267075 0.061093558 -0.15601939 0.38099676 0.30867887 0.37533233 -0.29261672 0.28081307 -0.45663106 -1.0188456 -0.29425818 -0.0061801467 -0.13269567 -0.3319361 -0.30371106 0.0064545525 0.17265743 0.10093361 -0.22656378 -0.09368765 -0.066146225 -0.04415448 -0.02399742 -0.32739627 0.17023177 -0.12982935 -0.4026598 0.25240344 -0.90775627 0.12807223 -0.15540276 0.025839906 0.18282838 -0.17083405 0.048101697 0.16579391 -0.25461638 -0.71725047 -0.15486667 -0.22614522
1030 0.13002402 -0.23656444 -0.19212075 -0.29627183 -0.20587388 0.4207863 0.2979767 -0.12020282 -0.296991 -0.53153193 0.4370907 -0.72643584 -0.3297656 -0.7482664 -0.80545187 0.41750214 0.4270655 0.5554472 0.22596209 -0.42573184 -0.04267993 0.6417067 0.23855801 -0.39830863 0.36533102 0.850252 0.075961344 0.19154608 -0.057778005 -0.70955014 0.4526689 -0.26341096 0.06832364 -0.025677983 -0.08462584 -0.122295946 -0.29586 -0.011422692 0.09934759 -0.3098423 0.60880286 0.56620777 0.0016261903 0.37651494 0.33319747 0.006458022 -0.20036195 -0.015714921 -0.46828485 0.78808856 0.29749548 -0.23584378 -0.027046775 -0.0122631835 -0.2252211 -0.067424536 0.13991168 -0.03102225 -0.14814499 -0.41158575 0.050468445 0.2524425 -0.028198613 -0.45865896 -0.42360616 -0.03844015 0.28612232 -0.0308662 -0.03568989 -0.25774142 -0.2224929 -0.036151826 -0.50209045 -0.075634345 0.2754684 -0.016519787 -0.30282965 -0.16418491 -0.026713012 0.042526945 0.060271665 0.33450782 0.28957376 -0.52499896 0.07210234 -0.08603083 0.06454094 -0.20134221 -0.57177734 -0.17061518 -0.43593 0.1781083 -0.1555474 -0.08349987 -0.1490439 0.25103962 -0.32832423 -0.2720223 -0.09453938 0.03587658 0.25391948 -0.20888652 -0.07851416 0.047916602 -0.60248893 0.25813544 -0.28826258 0.039038293 0.2514408 -0.2604 -0.039242115 -0.14139327 0.19398697 0.20105077 -0.6257622 0.356157 -0.46413088 -0.12823924 -0.1687016 -0.09910069 0.2101996 0.03685653 0.3112511 0.11484655 -0.29423404 -0.24531314 0.4845275 0.014234385
2274 -0.08608274 0.37119722 -0.18281867 0.44458058 -0.22754666 0.66816527 0.29058826 -0.58748406 -0.57869464 -0.07261323 0.07306871 -0.587611 -0.096751615 -0.74418175 -0.69926333 0.36138073 -0.019184658 0.8039892 0.1676431 0.44182357 -0.024261862 0.10064976 0.07315293 -0.65723187 0.3170279 0.021912288 0.25883445 -0.11727556 0.42899975 -0.56106347 0.18273798 -0.63334626 0.08319147 -0.2603267 -0.3236445 -0.4352648 -0.53368616 -0.24916792 0.09622083 -0.09133014 0.2174851 0.5145577 -0.036086436 -0.19107226 -0.14359875 0.38155124 -0.13799646 -0.023253692 -0.20028965 0.20518674 -0.044119123 -0.18441021 0.13493384 0.095998034 -0.08329962 -0.29057664 0.2673537 -0.058881186 -0.57694334 -0.18513627 -0.120289646 0.5349835 0.49724737 -0.7879626 -0.42004105 0.17072895 0.063683696 0.19112436 -0.09825724 -0.704218 0.041226644 -0.36658674 -0.57434744 -0.08935949 -0.23411669 0.21526821 -0.081951894 0.44902572 0.20026112 0.50405526 -0.37612402 0.25469 -0.45260423 -0.43734172 -0.3878925 -0.083872765 0.1931906 -0.30982742 -0.17378435 0.24546865 -0.35326144 0.14957619 0.052743558 0.107219934 -0.02033015 7.781822e-05 -0.24425453 -0.47531408 0.103809334 0.18528049 -0.4727229 -0.095847875 0.014166104 -0.037481073 -0.2871169 0.18371007 -0.15272637 -0.23257913 -0.035326406 -0.37207317 -0.19307002 -0.24242117 0.3043705 -0.17831437 0.12053784 0.04045012 -0.49079606 -0.024591202 -0.090018965 -0.047624446 0.1992712 0.26324245 0.06116391 0.21622635 -0.0633531 -0.30176035 0.22364978 -0.37110427
2518 -0.27901185 0.19125472 -0.19631371 0.43750194 -0.010582905 0.26048586 0.34847823 -0.34845763 -0.71203727 0.1702286 -0.057377003 -0.7397975 -0.106729954 -1.0179787 -1.0988045 0.08010394 0.31840128 0.35622206 0.084164776 0.24550499 0.025470095 0.68360555 0.10490333 -0.08083069 -0.11700394 0.3623701 0.22807416 -0.17128825 0.0742839 -0.56700116 0.68054277 -0.67789054 -0.092284724 0.09096818 0.059529945 -0.3094127 -0.50779366 0.04148514 0.00028818435 -0.18060736 0.552568 0.020112438 -0.38049665 -0.2105391 -0.22744012 -0.13061632 0.105566286 0.17518818 -0.09414412 0.37321657 -0.17781766 0.2030135 0.31748185 0.14831463 0.45547682 -0.23096104 0.11067826 0.040985018 0.18875052 -0.36200434 -0.5223013 -0.010354746 0.6544053 -0.43330052 -0.042026244 0.14912046 0.23876183 0.28988618 0.1671743 -0.36759502 0.24585484 0.16931371 -0.39442083 -0.22701553 -0.12348052 0.13463627 -0.41407874 0.17216827 -0.25818366 -0.01995175 0.34884134 -0.06664849 0.03216288 -0.34610632 0.115521714 -0.018470922 0.31338465 -0.31110254 -0.44954267 -0.2716225 -0.1517227 0.23897903 0.2619353 -0.120949745 -0.16106294 -0.0923253 -0.31731 -0.9280417 -0.11499694 -0.09478436 -0.08255671 -0.31112996 -0.06423066 -0.095595434 -0.06868931 0.13190615 -0.076757714 -0.11857044 0.33548173 -0.06388484 0.18758608 -0.26652083 0.0005814616 -0.09816655 -0.41976592 0.10462968 -0.37227067 -0.20486735 -0.18723473 -0.6552932 0.15189402 -0.53581786 -0.018037878 -0.12831095 -0.20652696 -0.44464895 -0.01589501 0.0011697507
606 -0.11338194 -0.47363245 -0.7019161 -0.22833821 -0.30388 0.26178288 0.22553805 -0.363815 -0.096648335 0.12901868 0.08431322 -0.86777866 -0.35892618 -0.6595084 -0.7767424 0.3648399 0.43382174 0.54050887 -0.11590437 -0.04987571 0.32538065 0.1464996 -0.38246456 0.17080185 0.19774033 0.037270233 0.45223352 0.13106833 0.14821313 -0.4609625 0.27383 -0.20921683 -0.14348994 0.31261113 -0.14513049 -0.040137682 -0.40802565 -0.1949125 -0.15072198 -0.33476028 0.34133545 0.0932108 -0.53961086 -0.25720724 0.10174438 0.28883636 0.12981927 -0.09322833 0.107683785 0.23712942 -0.08524475 -0.21165201 0.37182468 -0.31120458 0.2093842 -0.28241497 -0.2542612 -0.54134303 -0.024295583 -0.13104114 0.22110328 -0.23257285 0.38111237 -0.26694393 -0.25367844 -0.012626903 0.06671777 0.08018287 -0.079821765 -0.25035685 0.050366525 -0.17344242 -0.5652696 0.10981908 0.22561026 0.49774885 -0.608262 0.063072056 0.19037929 -0.08574429 -0.008693824 -0.014560955 -0.46171883 -0.18533333 0.052126676 -0.07216722 0.4582712 -0.6992726 0.005872469 0.24201632 -0.22997591 0.22045638 0.014437679 -0.07859936 -0.119739234 -0.1561167 -0.5129433 -0.56399465 0.13008253 -0.39269438 -0.49006346 -0.06708204 -0.62441057 -0.56498 -0.14574265 0.53354746 -0.11417397 0.3340682 0.3716825 0.13190572 0.12781651 -0.49509615 -0.016270379 0.047239684 -0.13774249 0.34806493 -0.20485175 -0.099123396 0.26830178 0.015482227 0.4235662 -0.23786762 0.4263005 0.016396143 -0.13521843 -0.42474556 0.28425118 0.11536391
800 -0.10821664 -0.34088215 -0.30753973 0.14159974 -0.45542225 0.46733272 0.22125633 -0.08034245 -0.16713226 -0.25682098 0.3455085 -0.8377008 -0.22602849 -0.94609994 -0.649209 0.5720007 0.2822883 0.48846367 0.34394005 -0.028100574 0.20024247 0.40165395 0.37400156 -0.4617993 0.06282883 0.33715022 0.105166696 0.15316091 -0.29188564 -0.31849688 0.18380757 -0.22642341 0.30126828 -0.0684341 -0.22801916 -0.26443878 -0.40965378 -0.366414 -0.028478181 -0.43808454 0.3365967 0.44180307 0.1135912 0.22383529 -0.019706935 0.19976749 -0.01158219 0.012737752 -0.39549 0.48955226 -0.02520531 -0.3441637 0.16505355 0.07525729 -0.09495135 -0.32273215 0.26449147 -0.16034916 -0.03983533 -0.3425085 -0.38336253 0.102635734 0.0938358 -0.3872711 0.04773169 0.035305936 0.35162085 0.16572051 0.2256817 -0.3772259 0.10127375 0.0855104 -0.64583737 -0.09550766 0.32783458 0.167464 -0.3106494 -0.0610985 -0.0027145958 0.22610325 0.3949627 0.36455914 -0.16353184 -0.3103544 0.0324054 0.02907193 0.2583504 -0.14431001 -0.21182887 -0.038636856 -0.3815882 0.33780435 0.019751543 0.051607937 0.046309277 -0.10296483 -0.07794957 -0.34848094 -0.08753707 -0.045593277 -0.007778733 -0.23705523 -0.24363282 -0.3231488 -0.58751136 0.42348263 0.115551494 0.10876207 0.05872476 0.023638984 -0.19855939 -0.22968091 0.41346738 -0.036674745 -0.3704316 0.12317975 -0.42604017 -0.32150602 -0.061338898 -0.2575906 0.061930988 -0.1578765 0.27174646 0.4954597 0.1332498 -0.43271935 0.13321956 -0.2280021
1575 0.13773508 -0.37468803 -0.49310556 0.13541089 0.09841391 0.40536672 0.3092072 0.06147564 -0.07404738 0.049524058 0.3636116 -0.8543804 0.027291197 -0.9109124 -0.73302144 0.4667712 0.29689565 0.1980781 0.3684656 -0.24341854 0.005812037 0.4292381 0.25339967 -0.58659464 -0.05397606 0.38757327 0.18688951 0.21170555 -0.35021228 -0.359689 0.06426932 -0.4926641 0.033437673 0.2662996 -0.16874939 -0.046923663 -0.26671487 -0.44959822 -0.18621792 -0.30997187 0.26604325 0.504105 0.10436679 0.4478216 0.28596723 0.0076212566 0.08616711 -0.028841548 -0.18332858 0.31699383 0.105879195 -0.11385145 0.20715909 0.2002451 0.15903735 -0.06585668 0.047988504 -0.1205981 -0.09267831 -0.46813813 -0.08794204 0.19984722 0.030461838 -0.081299305 0.047638755 0.06202282 0.12901938 -0.08449212 0.23479682 -0.4428346 -0.005125171 0.15910609 -0.48529163 -0.067331366 0.29030478 0.11696923 -0.45665732 0.1294666 -0.07332943 0.16186795 0.19338101 0.32938826 -0.07012553 -0.5170843 0.09989021 -0.13873138 0.36394715 -0.06272338 -0.13943605 -0.24193837 -0.39049754 0.23144595 -0.0115789985 -0.070704065 -0.08600521 -0.20511355 -0.23065637 -0.40637872 -0.026324237 0.25960156 -0.17915177 -0.19272369 -0.20675147 -0.26833314 -0.8503069 0.15535025 -0.12458807 -0.14471743 -0.07478726 0.050595246 -0.1617646 -0.14604902 0.13010263 -0.14506938 -0.14702764 0.18239751 -0.17791717 -0.3421687 -0.028231349 -0.67071044 0.21929395 -0.14099428 0.008716061 0.2941068 -0.10105685 -0.5760315 0.060288493 -0.11108425
546 -0.10770285 -0.065537624 -0.34925264 0.11637391 -0.25557774 0.5610146 0.07324226 -0.24687949 -0.52263874 -0.21008214 0.1795193 -0.67576075 0.11254644 -0.6298125 -0.8684052 0.32469812 0.13886444 0.6553005 0.17711951 0.06611719 -0.17365016 0.30368906 0.0784259 -0.23837051 0.39689928 0.5634822 0.33207667 0.016872093 0.2793782 -0.26990202 0.19277893 -0.56339055 -0.10787649 0.07583652 -0.23690872 -0.21621332 -0.31785852 -0.1353928 -0.018325463 -0.47598282 0.48313767 0.18071733 -0.03815134 0.047970127 -0.03968289 0.23951195 -0.18355739 -0.06965491 -0.35421684 0.1522328 0.045648962 -0.17042063 0.07967359 -0.03581344 0.100784846 -0.29674456 -0.1575822 -0.122465834 -0.16048813 -0.21283813 -0.13971765 0.33696285 0.3093412 -0.17685632 -0.009781242 0.078052185 0.35239643 -0.103493616 0.09180884 -0.43930846 -0.1313804 0.025459401 -0.21651536 0.12102582 -0.11197622 0.0053104702 -0.3441604 0.1279432 -0.0875102 0.260522 0.23156786 -0.076042056 -0.36708272 -0.42513904 -0.12477134 -0.12847348 0.1585845 -0.24620463 -0.55178034 0.06067521 -0.1441056 0.10646425 -0.014005329 0.13632017 -0.027158262 -0.056371022 -0.27530614 -0.6351437 -0.084525846 -0.21122803 -0.21753386 -0.3126711 -0.28230676 -0.35339952 0.11317884 0.14809278 0.033138487 -0.08155786 0.20128573 0.15827174 0.057969872 -0.16296305 0.06812642 0.11949269 -0.21933869 -0.07224961 -0.38726503 -0.1377191 0.23221745 -0.6702024 0.08235625 0.08667823 0.015480309 0.27488768 -0.15540121 -0.6705917 0.024600038 0.13385631
1070 0.13386309 -0.07179339 0.09396606 -0.0747211 0.10291316 0.13615632 0.3689044 -0.55751455 -0.13659889 0.024269117 0.15948406 -0.8131683 -0.10262354 -0.74375254 -0.5001831 0.15515691 0.38752413 0.5298752 0.74584126 -0.103627704 -0.016023569 0.31813392 -0.02900333 -0.37490085 0.29869857 0.48394218 0.54361576 -0.18164328 -0.38474178 -0.26041198 0.31787106 -0.3726574 -0.10949461 0.12268784 -0.2412616 0.15127242 -0.3930833 -0.22562848 -0.11455365 -0.30208892 0.27530313 0.40677017 0.030766865 0.15690447 0.3519386 0.24710998 -0.056351077 -0.36789376 -0.5267861 0.017475147 -0.0075481036 0.19789706 -0.07757055 -0.06803382 0.14894454 -0.29174843 -0.07718866 -0.21365158 -0.3211433 -0.1752467 -0.23125768 0.15806295 0.4557889 -0.15169019 -0.07388844 0.20797683 -0.04318026 -0.1734816 0.24417247 -0.405571 0.005434603 -0.2959452 -0.528279 -0.1283076 0.17276822 0.070889354 -0.28793275 -0.08447675 -0.31175157 0.45056424 0.043689687 0.32220608 -0.14740978 -0.71608573 0.059587356 0.012141756 0.20804399 -0.7181376 0.099104986 0.011581078 -0.30602047 0.18400122 0.069692686 0.18751556 -0.2016006 -0.102275744 -0.5888227 -0.4815668 -0.058219776 0.3989681 -0.38751054 -0.20102745 -0.3515214 -0.40908572 -0.17126907 0.4445148 -0.24300748 -0.23593016 -0.086175136 0.10233318 -0.052765403 -0.1845133 0.21257043 -0.0124984495 -0.43172953 0.5226242 -0.21151596 0.037849877 0.035469785 -0.37660223 -0.072356716 0.08918453 -0.24581419 0.11958199 -0.069300145 -0.6084145 0.21044774 0.1774646
309 -0.30163106 -0.022362703 -0.11027477 0.0490895 -0.13875853 0.3832421 0.19606705 -0.20899223 -0.37477717 -0.021951213 0.016546728 -0.5686223 -0.15002716 -0.74668545 -0.502728 0.29317224 0.21146679 0.23801078 0.19931965 0.046111453 -0.1262582 0.50599176 0.024290022 0.010730381 0.35299212 0.07374703 0.6072547 0.0028401904 0.05260569 -0.31986052 0.3728492 -0.44717675 -0.20900649 -0.21853542 -0.27806723 -0.16320099 -0.23982087 -0.3571025 0.17278357 -0.4165991 0.39923078 0.2685194 -0.089370705 0.2602881 0.06935245 0.15734333 -0.16584654 -0.2675462 -0.39736745 0.125333 -0.17215148 -0.24481374 0.41750836 0.045157656 -0.05225054 -0.021023517 0.15926796 -0.2751999 -0.17504124 -0.23533975 -0.18562022 0.5960228 0.13326757 -0.51214355 -0.21680136 -0.08195089 0.49288386 0.17290443 0.25725928 -0.11759272 0.21431352 -0.24887395 -0.42872995 -0.08333153 -0.05869607 0.16098103 -0.50721055 0.27049172 0.02522374 -0.13640052 0.20792799 -0.051603347 -0.079517186 -0.4023751 0.051141217 0.022706259 0.14573759 -0.2592386 -0.3216272 -0.208403 -0.17083824 0.39121705 -0.09211993 -0.18728347 -0.067060225 0.054862007 -0.2752663 -0.7952793 0.007437977 -0.039057303 -0.21190205 -0.17441507 -0.42555198 -0.18205702 0.053996176 0.005162199 -0.0994972 -0.09639074 0.045822456 -0.23181026 -0.048285984 -0.44053286 0.07722483 0.09700602 -0.3343881 -0.116449095 0.08147923 0.06080984 -0.19524536 -0.19243291 -0.11579376 -0.10195268 0.40998334 0.3329936 0.025651578 -0.4028479 0.06733434 -0.33177108
935 -0.56962407 -0.5591185 -0.507866 -0.339757 -0.15365621 0.4963556 0.14962149 -0.018015072 -0.38624358 -0.24376546 0.2136968 -0.60141313 -0.23951414 -0.69027346 -0.89295715 0.33835307 0.5775787 0.39700118 0.64333934 -0.20697261 0.21501385 0.31038138 0.38730752 -0.3184949 0.14980453 0.8351161 0.13276868 0.035038736 -0.16351382 -0.265725 0.15996332 -0.26322797 0.04147674 0.008768492 -0.1885057 -0.09956977 -0.23862523 0.13559338 -0.04339599 -0.38247687 0.2577574 0.6564921 0.10716641 0.27176285 0.12823094 0.05724581 -0.113242805 0.124416485 -0.24395129 0.4242114 0.04231687 -0.12649521 0.35948178 0.09627115 -0.388242 -0.28231037 0.27382526 0.004561686 -0.12562627 -0.54978144 -0.08054412 0.3533488 0.26596272 -0.02870378 0.047004968 0.16578873 0.10403475 0.033279262 0.07585312 -0.53424317 0.08884529 0.27695397 -0.47044656 0.029945184 -0.013677894 0.22328998 -0.6028954 0.15307835 0.12780099 0.2919859 0.21430191 0.2418535 -0.1664621 -0.21091764 -0.05877491 -0.1739912 0.30022725 -0.35567752 -0.19612896 -0.103975825 -0.3166968 0.33106712 0.111200295 -0.051617928 -0.034059156 -0.04549351 -0.12708373 -0.41842508 -0.023659702 0.21784857 0.08686719 -0.48004922 -0.012925664 -0.09987052 -0.5326495 0.3416091 0.0060300846 0.02378764 0.21627669 -0.032430228 -0.04537545 -0.086686425 0.27696997 0.06817861 -0.37445873 0.22425586 -0.43026352 -0.10632073 -0.30180505 -0.4016662 0.4075297 0.09416287 0.059986144 0.12317411 0.093897305 -0.49834797 -0.13084285 0.21288165
1205 -0.32901713 0.031892918 -0.15302391 0.0956655 0.25687608 0.27423596 0.31519163 -0.59801865 -0.25293726 -0.20354746 0.080245115 -0.670247 -0.056068692 -0.7446749 -0.56808984 0.19044621 0.24831781 0.46666256 0.5369421 -0.11459806 -0.08394808 0.29105553 -0.048413556 -0.53313917 0.23199797 0.38960642 0.5521317 0.021977184 -0.40074322 -0.25732508 0.26149708 -0.301604 -0.31128952 0.20227148 -0.2673102 0.28914744 -0.2708428 -0.12733337 -0.40116465 -0.4843217 0.56114966 0.44595984 0.0945922 0.3440995 0.03562266 0.095078446 0.08395348 -0.3625155 -0.24322623 0.22963686 -0.019616578 0.056748364 -0.15814696 -0.17747387 -0.02014378 -0.14698017 -0.13950881 -0.11688381 -0.29437906 -0.13318956 -0.16567203 0.3363164 0.27943048 -0.119369715 -0.058997225 0.1054031 -0.09723929 -0.13591379 0.16766262 -0.37079588 0.22294554 -0.09050752 -0.42485392 -0.12873536 0.097107984 0.06293898 -0.17005244 0.17495796 -0.5611893 0.2907347 -0.20888983 0.30425745 -0.2515178 -0.7131729 -0.11132643 0.03491248 0.15419284 -0.51498055 0.19696182 -0.08815282 -0.12686631 0.1496681 -0.06042965 0.22005703 -0.22239034 -0.09991737 -0.39711344 -0.62547165 0.10986465 0.33155718 -0.49031714 -0.16999298 -0.368324 -0.27653483 -0.28682274 0.33832145 -0.35225877 -0.20879862 0.008223733 -0.029283427 0.0007365577 -0.06173999 0.09430329 -0.09588978 -0.41698548 0.20049952 -0.26786983 0.18966755 0.15622613 -0.30368552 -0.12708917 -0.036085565 -0.1001171 0.12188526 -0.14988422 -0.6560164 0.24714714 0.11396621
1571 0.13541406 -0.01875453 -0.53619903 0.13500747 -0.13863628 0.6889412 0.2375565 -0.40714437 -0.14227508 -0.35311785 0.01197421 -0.47651988 -0.29738975 -0.42893285 -0.44902882 0.06649221 0.35194284 0.51738816 0.46936175 -0.27602854 0.20382424 0.15906222 -0.18573517 -0.5415098 0.21049672 0.66100585 0.5271387 0.13607296 0.04611127 -0.6168511 0.6007519 -0.50220424 -0.25080562 0.105941966 -0.435772 -0.118167505 -0.59718406 0.16680771 -0.11412997 -0.67588 0.44310775 0.308022 0.041025333 -0.029110473 0.2540697 -0.12058123 -0.1556844 0.52228785 -0.4669688 0.07337687 0.30210647 0.11493776 -0.07487656 -0.117451675 0.17920412 -0.11486327 0.2810525 -0.093502946 -0.6192145 -0.080948316 0.08405903 0.12120586 0.072064415 -0.022296464 -0.19517228 0.12159021 0.12343343 -0.5034376 0.23626322 -0.54655045 0.20584819 -0.13046579 -0.22430494 -0.28918448 0.18597408 0.15169382 -0.44605345 0.17433181 -0.08021183 0.32453755 0.12401032 0.07410043 -0.17213184 -0.10027362 -0.17882332 -0.24088852 0.4949539 -0.1950045 -0.17388557 -0.23857789 -0.44655117 -0.23326832 -0.16832201 -0.25804055 0.15867785 -0.08317418 -0.22879681 -0.24479319 0.022821646 -0.13074867 -0.34210446 -0.22322635 -0.270309 -0.24086706 -0.31943935 -0.2358337 -0.22919585 -0.5091683 -0.069517314 0.07686139 0.38908073 -0.47131142 0.050970946 0.17922644 -0.40962976 0.29659513 -0.12920147 -0.714038 -0.22024702 -0.015395412 0.15426834 0.07427972 0.6725992 -0.08284241 -0.21567145 -0.691515 -0.25436538 -0.011660298
1971 -0.3964277 0.041887615 -0.07405601 -0.17244178 -0.065973006 0.7858253 -0.15828802 -0.33271563 -0.18914495 0.090975754 0.27460897 -0.5686002 0.062192675 -0.4930032 -1.0139987 -0.01872662 0.24684463 0.2555131 0.2698445 0.04869441 -0.15427433 0.14629501 -0.10187492 -0.1539227 -0.20477383 0.018366842 0.31400615 -0.20543666 0.1145834 -0.09528804 0.049623303 -0.66140604 0.14274384 0.117539786 -0.24135754 0.12904584 -0.28521186 -0.17891546 -0.06645715 -0.62751746 0.82435906 0.30458477 0.028850587 -0.23677668 -0.16692767 0.32320437 -0.49343663 -0.10297238 -0.51653486 0.3268443 0.013912969 0.3206682 0.40804926 -0.48275793 -0.2544732 -0.38854218 0.065461494 0.2505761 -0.50389147 -0.37807843 -0.4922042 0.2976349 -0.053008214 -0.23634122 0.063598484 -0.13528506 0.3935122 0.12751298 0.221925 -0.74601895 0.09155076 -0.30111942 -0.18589096 -0.029441211 -0.018013587 -0.063039355 -0.5036028 0.38110232 0.059864167 -0.13329095 -0.24390206 0.28740498 -0.4805499 -0.02585986 0.16859151 0.19714138 -0.1979673 -0.6130782 -0.113210455 -0.4328012 -0.08062256 -0.2509813 -0.28167215 -0.26340425 -0.23351264 0.15595898 -0.41184798 -0.8042285 0.23813304 -0.006583791 0.08899579 -0.11299812 -0.56917775 -0.26283795 0.038574215 0.38941428 -0.12125999 0.18280259 0.03591231 0.17209738 0.29845086 -0.23882891 0.07405653 0.06110813 -0.0372944 -0.10450574 -0.43158773 -0.5863997 -0.33553645 -0.20078404 -0.20796113 0.007398298 -0.021711532 0.0674556 -0.07794713 -0.2582659 -0.20684628 0.015670614
1127 -0.03971337 -0.09474527 -0.42632255 -0.19440757 -0.056983132 -0.2922595 0.18935382 -0.5019849 -0.2950344 -0.11734008 -0.11370908 -0.7274863 0.010696393 -0.7889688 -0.60636103 0.03941805 0.45707566 0.44479707 0.3446291 -0.085350536 0.14485466 0.08572853 -0.030976756 -0.2289908 0.07404403 0.43771365 0.69858134 -0.15221836 -0.52730197 -0.419879 0.07477229 -0.48051772 0.10975047 0.13434078 0.18052572 0.25081095 -0.6711811 -0.22540738 -0.28660798 -0.4346222 0.37389168 0.116165064 0.115902476 0.27217108 0.05663193 0.05985937 0.17019579 -0.15913767 0.042994343 0.2394997 -0.117718734 0.4438393 0.25755003 -0.21442516 0.51424295 -0.010430213 -0.019454336 -0.402213 -0.2160684 0.13757294 0.21547914 0.54600114 0.29506952 0.16226679 -0.17677031 0.14945833 -0.1789697 0.00372538 0.35288718 -0.36838356 0.2575215 0.14112195 -0.57969326 0.01729542 0.35825 -0.20187521 -0.0005653997 0.12916833 -0.058620747 0.18054761 0.014507992 0.3857226 -0.12219105 -0.24587813 -0.05430584 0.029120041 0.09222701 -0.21688402 0.4702166 -0.04741364 -0.2165151 0.18286493 -0.0289768 -0.114430055 -0.65320516 0.1264897 -0.38426638 -0.46503302 0.04310036 0.31919244 -0.3610533 -0.23992957 -0.40407395 -0.23312017 -0.10274741 0.487426 -0.6031711 -0.15667243 0.08220837 -0.02021724 -0.65185666 -0.13085155 -0.008037818 0.26740456 -0.7749963 0.10630551 -0.024937503 -0.1060069 0.11126407 -0.34334114 0.109220885 -0.058601987 -0.13325153 0.20461091 -0.27767527 -0.2746892 -0.1451724 -0.06650513
530 0.04546664 -0.013362241 -0.019293845 0.011133091 -0.08600577 0.5428909 -0.014750753 -0.37279597 -0.079953924 -0.6694387 0.28923628 -0.6011649 0.09126102 -0.52793914 -0.6230561 -0.017392457 0.32625085 0.23762164 0.28663626 -0.16441509 -0.0051585725 0.40170524 -0.28236908 -0.41117385 0.51693356 0.24377455 0.30820096 -0.14886639 -0.049796432 -0.24687819 0.4451851 -0.21615148 -0.4455101 -0.070072405 -0.2509908 -0.29579437 -0.5191329 0.10911553 0.11291983 -0.51309705 0.24992576 0.34186918 -0.004731452 0.06817875 0.326623 -0.3212586 0.05292784 -0.1135604 -0.45701885 0.17650409 0.30177435 0.07464964 0.35195208 -0.32655516 0.2230773 -0.15603879 0.04943928 -0.01836905 -0.2798304 -0.6404549 0.12724029 -0.17153455 0.22145581 -0.24393553 -0.19240788 0.07550237 0.37519816 -0.19355966 0.1020441 -0.554129 -0.17191136 -0.14601308 -0.14977556 0.12215933 -0.042833 0.104649015 -0.64247245 0.20368263 -0.03329441 0.36427552 0.29902822 0.012786233 -0.016304934 -0.2938773 -0.10275315 -0.19116598 0.5340504 -0.25900784 -0.2638855 0.024750162 0.08220372 0.18212062 -0.093023 -0.1504762 0.15769474 -0.3845053 -0.36256728 -0.59958667 0.1323332 -0.08207565 -0.26537147 -0.23034814 -0.22457811 -0.16971532 -0.38878748 -0.056688305 -0.081626214 -0.1608446 -0.092112124 -0.2317893 0.10974208 -0.41125432 0.24343622 0.07296038 -0.37212807 0.23894915 -0.30313954 -0.60843104 -0.44350418 -0.3358607 0.14134823 0.01739365 0.34164333 0.35632214 -0.13402691 -0.5302873 -0.22167479 -0.41210186
856 -0.2535999 0.08151614 -0.054827724 -0.084884554 0.02332796 0.21456833 0.40131578 -0.47757265 -0.20902264 -0.22216737 0.052056808 -0.7513209 -0.15231498 -0.8696946 -0.8371683 0.23773971 0.32903174 0.3774731 0.44726083 -0.081089295 -0.111934215 -0.007127504 -0.26494694 -0.42015246 0.2644372 0.5522772 0.47326437 -0.24075256 -0.4014936 -0.24505483 0.2415307 -0.39226496 -0.23095901 0.13049105 -0.23582017 0.3258759 -0.41335347 -0.17925653 -0.31251714 -0.5236489 0.4417364 0.26844344 0.24734503 0.30650583 0.30575213 -0.011248667 0.10747881 -0.50962156 -0.49991703 0.36669108 -0.12550925 0.1371504 -0.2140132 -0.35154623 0.1863338 -0.13215616 -0.26386747 0.016027529 -0.2189364 -0.2457929 -0.15213364 0.22098593 0.29048052 -0.18804385 0.034646053 0.299303 0.20371829 -0.11517501 0.3251373 -0.41268688 0.15972437 -0.24420139 -0.38362432 0.013811757 0.100492194 0.07493491 0.005667069 0.22672698 -0.51983124 0.32419252 -0.0677528 0.30115417 -0.17150588 -0.42087066 0.015801352 0.15770823 0.408097 -0.48545787 0.17506991 -0.23939455 -0.06717317 0.24936466 0.008593374 -0.032966435 -0.3238094 0.14319065 -0.23023178 -0.51293707 0.043942347 0.37669784 -0.14206594 -0.13134818 -0.42215842 -0.1687337 -0.2562889 0.1933936 -0.23274331 0.07501384 -0.16391572 0.18397889 0.114097916 -0.28557378 0.19626987 -0.036488358 -0.64189535 0.25666225 -0.05121264 0.20235606 0.018761786 -0.16750956 -0.15839621 -0.04140421 -0.1325093 0.4057423 -0.084119536 -0.6363121 0.1224299 0.029467225
2604 -0.37224483 -0.08092213 0.053786024 -0.24966896 -0.16114691 0.4279324 -0.20740214 -0.2470925 -0.36611035 -0.130898 -0.06456041 -0.65454316 -0.09749832 -0.26603618 -0.6004372 -0.008461225 0.54353315 0.39877403 -0.17609103 -0.04201082 0.15209566 0.30783907 -0.1488765 -0.46383682 0.28345054 -0.15029466 0.7289674 -0.00707992 -0.15697555 -0.14577632 0.090215884 -0.2911878 -0.25281224 -0.18272287 -0.26041228 -0.014991662 -0.5244971 0.59781134 -0.39372885 -0.5047345 0.5225783 0.19449523 -0.06705574 -0.02715607 -0.06321964 0.53833616 -0.27610523 -0.26051053 -0.019483915 0.25544602 -0.04642888 0.046808433 -0.044648796 -0.5332194 -0.12127928 -0.22810747 0.026875028 -0.108969845 -0.3175341 -0.50407726 0.3267973 0.6500754 0.060979385 -0.4235807 0.11454974 0.20102318 -0.02271274 0.21945687 -0.177136 -0.35888326 0.53205717 -0.12052482 -0.4724032 -0.012765592 0.17524129 -0.12849931 -0.3757071 0.5289092 0.6051335 -0.020545056 -0.26966462 -0.4657871 -0.15425248 -0.34580177 -0.12096974 0.38662425 0.3341447 -0.5677719 -0.22618681 -0.5363199 -0.70253164 0.30376652 -0.45064187 -0.17794253 -0.043476053 0.02258768 -0.46423495 -0.9083179 0.01633087 0.09544068 0.06320714 -0.28562927 -0.12418264 -0.20299083 -0.29879358 0.01078414 -0.43773192 0.11389214 0.047325797 0.33981422 0.3026553 0.12203231 -0.077075556 0.13083333 -0.32844996 0.20187694 -0.361181 0.08330646 -0.22622998 -0.19635029 -0.092562996 -0.051332396 0.20490111 0.67642814 -0.3370179 -0.38870978 0.10233686 0.119231
910 -0.05058607 0.107522525 -0.18305643 -0.2041647 -0.031180901 0.3440273 0.26565537 -0.2532436 -0.40151438 -0.30976096 0.16468824 -0.52719945 -0.27869758 -0.44250223 -0.5559015 0.189236 0.2141589 0.58543843 0.32310796 -0.020893633 0.1464332 0.2506038 -0.11476076 -0.073356844 0.18422985 0.49488392 0.28477797 -0.05589263 0.43848875 -0.40942976 0.46603388 -0.39216915 0.29322535 0.4795805 -0.23101883 -0.25136656 -0.16830404 -0.25669447 -0.39843968 0.1598338 0.6734165 -0.047660798 -0.27299565 0.13229838 0.16296327 0.20424561 -0.19577001 -0.018524088 0.099931 0.15180111 0.3418382 -0.38307214 0.4528393 -0.25289786 0.05653315 0.07787319 -0.36006838 -0.49567273 -0.047983367 -0.22302303 0.16329175 0.29291317 0.0014244182 -0.15753834 0.276939 -0.38819063 0.64322776 0.0029960526 -0.018582715 -0.26228252 0.18474749 -0.10958795 -0.101399995 -0.56209636 -0.41496202 0.34792578 -0.67962414 -0.027840968 0.35647944 0.34775862 0.04997268 -0.077822804 -0.17717855 -0.42347866 -0.0437444 0.05284418 0.19862072 0.37616628 0.04383932 0.21922515 0.1676968 0.106109716 -0.53743887 0.5047905 -0.16802913 0.006638811 -0.24012613 -0.5624997 -0.43174136 0.3846477 -0.6296621 -0.5631089 0.18918526 -0.37159738 0.040968783 -0.06763949 -0.27549785 0.13099836 0.34805414 0.06684666 -0.08333809 -0.023817796 0.14412037 -0.14114743 0.026975906 0.14219263 -0.2645632 -0.31702504 -0.08548616 0.13198799 0.07035641 0.044649262 -0.0011274753 0.15757935 0.25610495 -0.13262111 -0.044376172 -0.08238142
2173 0.010428829 -0.097015314 -0.13724115 -0.3148821 -0.61198545 0.09241882 0.33552584 -0.5543647 0.046262395 0.044263434 0.3043134 -0.024276355 0.0045133554 -1.0823857 -0.63723105 0.14194433 0.26932856 0.40911102 0.13535994 0.26775193 -0.06814324 0.52104396 -0.19310053 -0.31857747 0.6759769 0.8106301 0.06965256 -0.5566519 0.2762078 -0.5248528 0.15537839 -0.40267554 0.043977622 0.00047817657 -0.051881205 -0.22955795 -0.3647243 -0.1252799 -0.5922919 -0.17950587 0.14840244 0.44850385 -0.121136546 0.11438916 0.26885802 0.47106713 -0.091637135 0.05914883 -0.015577753 0.43310446 -0.091944925 -0.23803273 0.11645022 -0.0062668934 0.24519952 -0.305094 0.2287911 -0.0863456 -0.63732827 -0.6159231 -0.2670065 0.26084298 0.5233087 0.12676544 -0.14717549 -0.37048122 0.42851028 0.22580002 -0.04743947 -0.038700383 0.31446332 -0.28231537 -0.034678683 -0.56351423 -0.0036465374 0.049517505 -0.45362175 0.12656353 -0.018640473 0.04089694 0.14669202 0.020003175 0.14709723 -0.33008718 -0.0913836 -0.29312286 0.5333854 -0.40951115 0.113021515 -0.3572691 -0.028684167 0.1546173 -0.55098337 -0.033076618 -0.065736026 -0.1895091 -0.238558 -0.16460192 0.3436863 0.19464402 -0.07607033 -0.12527105 0.073872 -0.32029206 -0.2978696 0.5395853 0.19679596 -0.15849979 0.21270737 0.43796673 -0.07192245 -0.15971366 -0.01842069 0.102670334 -0.25849003 0.020674882 -0.43493855 0.29735178 -0.26697734 -0.17807086 0.19480455 0.4408815 -0.086689964 -0.016732529 0.0361466 -0.48012996 0.2413234 0.049064517
191 -0.07928413 -0.11296936 0.055006627 0.39994186 -0.359307 0.35873204 0.2606407 0.161824 -0.07505849 -0.22753744 0.23217486 -0.89226604 0.24467608 -0.56887084 -0.7533039 0.20896314 0.089009784 0.3285418 0.27947518 -0.01616099 -0.03852683 0.453195 -0.06388062 -0.15566574 0.064726494 0.70743185 0.20494604 -0.12257033 0.7137781 -0.030017586 0.38053024 -0.4249537 -0.13524958 0.20972179 -0.056808352 0.13213319 -0.37692106 0.18909486 -0.3331342 -0.16009296 0.28225866 0.58573157 -0.1088498 0.5165679 0.044340376 0.46869332 -0.41015622 -0.20316993 0.25505954 0.33037293 0.047508784 -0.39315924 -0.292173 -0.46490416 0.12173397 -0.11495944 0.085901424 -0.462122 -0.3223548 0.4360195 -0.23860909 -0.1370675 0.2625851 0.12392727 -0.21642148 0.07903519 0.7025077 0.44864246 0.10362631 0.14840388 0.36648944 -0.20869991 0.0051597874 -0.3091963 -0.011834694 0.35514823 0.14341916 0.089381576 0.36942047 0.19774802 0.16916937 0.08225083 0.28404135 -0.30735722 -0.16041844 -0.13636509 0.6480774 0.011698821 0.37515852 -0.13785172 -0.10633933 -0.42053676 0.06117006 -0.3006103 0.024062105 0.012569743 -0.27588978 -0.26928324 0.40701336 0.4925323 -0.48060998 -0.07673661 -0.254333 -0.020547992 -0.47249794 0.2671621 0.13016011 -0.19792862 0.0344906 -0.342837 -0.21978945 0.07415667 -0.39145786 -0.106194116 -0.2888367 -0.15548949 -0.5891851 -0.43393958 -0.11594638 -0.2355438 -0.032186415 0.059018917 -0.12348619 0.3158042 -0.3586596 0.015409177 0.28660566 0.4341502
1253 -0.3907689 -0.01048864 -0.0031126537 -0.3091634 -0.19569787 0.7003277 -0.21465644 -0.2121742 -0.24151105 -0.20549981 -0.25915214 -0.66792756 -0.31333092 -0.237342 -0.6897999 -0.06270588 0.089351535 0.43922326 0.16757236 -0.1354241 0.27899286 0.27104864 0.1403872 0.035823166 0.45650053 0.41565543 0.6845028 -0.02772557 0.5202201 -0.53518593 0.74447995 -0.5308523 0.2907932 -0.03799534 -0.14933969 -0.031143473 -0.105352126 -0.16886221 -0.20142166 -0.05351541 0.83239126 0.23729354 -0.2059883 -0.052880455 -0.0221844 0.4128054 0.07488503 -0.11095371 -0.090615496 0.23130654 0.2684298 -0.25329897 0.37898812 -0.24845026 0.2141915 -0.16822113 0.11972882 -0.5116542 0.037232623 -0.627308 0.17957151 0.24253349 -0.12278392 -0.307908 0.02497383 -0.22392938 0.43004718 -0.11034074 0.033923008 -0.2447825 -0.14382663 0.025096001 -0.16185893 -0.64879084 -0.5010548 0.35669374 -0.661795 0.094552785 0.43023062 0.2664047 0.026208851 0.12815185 -0.08497925 -0.5772522 -0.034735985 -0.033797603 0.16981003 -0.25724828 -0.013446764 -0.059859127 0.2699832 0.38674128 -0.29846522 0.29002744 -0.29621273 0.21201575 -0.13797194 -0.52729416 -0.41368213 -0.16995466 -0.46160623 -0.73975205 -0.14279667 -0.13041058 -0.14371614 0.004471042 -0.5722653 -0.1354354 0.3232179 0.2652143 -0.19712295 -0.07653238 0.16280572 -0.041346185 -0.3919154 0.15012673 -0.18747324 -0.26621023 -0.01613862 -0.42103538 0.28320798 -0.073598504 0.0034658639 -0.118353866 0.33534542 -0.21131012 -0.22688091 0.2887829
1728 -0.36112 0.039247062 0.114543796 0.09207032 -0.30229142 -0.016989551 0.15041535 -0.28686383 -0.014346753 -0.3623432 0.10952618 -0.8088584 -0.09105901 -0.10511922 -0.27620223 0.43332264 0.56565225 0.39499664 0.025721408 0.10461167 0.3607428 0.063398756 -0.24197225 -0.48511454 0.17324434 -0.07364105 0.4701662 0.5431666 -0.14820015 -0.4577685 0.67284966 -0.36283588 -0.48038542 0.013851228 -0.27200332 -0.23235525 -0.46530643 0.1333569 -0.34023482 -0.48812154 0.65748197 0.28787932 0.15835406 -0.44540608 0.20505801 0.5377271 0.27696365 -0.30251765 0.086725935 0.2963033 -0.24554001 0.06783721 0.07639032 -0.28108528 0.1675994 -0.3373901 -0.17978267 -0.25095996 -0.46392336 3.2734279e-06 -0.5503678 0.599578 0.27926376 -0.34665298 -0.24687868 0.02426188 -0.16912173 0.41944432 -0.36982626 -0.27414104 0.21697983 -0.014482909 -0.124456644 0.42744067 0.082778275 0.2746594 -0.34780747 0.14607638 -0.2137535 0.50748944 0.2757468 -0.10102363 -0.20406175 -0.13195091 0.15517846 0.23313008 0.29672348 0.035252143 0.33091792 -0.02607574 -0.37968737 0.17584409 -0.10345304 0.1304261 -0.08420599 0.07402156 -0.28633076 -0.8785442 0.06278066 0.34079698 -0.094324075 0.13459824 -0.40237927 -0.12995918 -0.77054816 0.10371352 -0.44561425 -0.18664195 0.23165905 0.07513203 0.43988776 0.16526993 0.12521298 0.022629915 -0.4761557 0.24854767 -0.43661404 0.049686715 0.23695458 -0.32868093 -0.2925053 0.14559709 -0.18623163 0.5263594 0.4564776 -0.72992384 0.15260158 -0.12418556
1729 -0.0244431 -0.02974282 -0.05119264 0.03177262 -0.28647685 0.10042954 0.12722304 -0.16581134 -0.21413079 -0.17204745 0.10718993 -0.87259746 -0.01631233 -0.37865686 -0.6490034 0.39210442 0.6017422 0.47725603 0.17402576 -0.033279806 0.13027433 0.31056005 0.202176 -0.4864937 0.18845662 0.35665938 0.53618526 0.18278979 -0.2925289 -0.26485163 0.5444155 -0.26645154 -0.3456143 0.26823398 -0.32444087 0.15504266 -0.56356734 -0.12056424 -0.07060064 -0.25466752 0.4300954 0.36197826 0.26165947 0.030704593 0.28643507 0.18242139 0.17502718 -0.3705618 -0.55494356 0.21295239 -0.33791623 -0.07679857 -0.21226496 0.12994674 0.1321084 -0.23618045 0.058328632 -0.1145984 -0.42340177 -0.2498054 -0.26496914 0.31338185 0.088054985 -0.29873925 -0.21404047 -0.18051678 0.093989834 -0.15006281 0.058425896 -0.22743666 0.28397948 -0.26680094 -0.60188615 -0.13860571 0.37694067 0.042959232 -0.31312102 0.014871288 -0.24177162 0.51747644 0.07944955 0.028243897 -0.51559144 -0.5455406 0.030464718 0.05568815 0.27423316 -0.6067905 0.028731067 -0.15569317 0.08347495 0.33618805 -0.18842629 -0.117715046 -0.03027612 -0.24562891 -0.07446086 -0.71190643 -0.064300545 0.4276344 -0.35156044 -0.2472335 -0.16871227 -0.3823739 -0.41431102 0.19904876 -0.4068284 -0.22015448 0.0061274227 -0.038758177 0.21286757 -0.3421054 0.16350652 -0.4340049 -0.4306398 0.27303985 -0.26533777 0.08279053 -0.021011844 -0.078897335 -0.13574511 -0.009569033 -0.27297097 0.123996556 -0.12152151 -0.39580652 0.02430894 -0.24004054
1206 -0.16287428 -0.2511784 -0.007285025 0.2422552 -0.31645426 0.43707827 -0.07662257 0.111219294 -0.090501405 -0.07482184 -0.61900693 -0.5789174 -0.38931045 -1.2711707 -0.6878518 -0.060764946 0.19927269 0.47593623 -0.015696267 0.32874548 -0.03721883 0.19113 -0.27873427 -0.48930344 0.17254885 0.13671601 0.331821 -0.06918342 0.22652982 0.09704931 0.37162566 -0.106929116 0.003158363 0.29690084 -0.17203422 0.08733381 -0.097393945 -0.19218089 -0.480354 -0.6517982 0.63005626 0.3500275 -0.16062626 0.24233969 0.60009384 0.6186255 -0.55592555 0.05086623 -0.37410247 0.25002116 -0.07899541 -0.35407352 0.3238277 -0.049381346 0.29722667 -0.22818297 0.14488795 -0.36112195 -0.23858088 0.2788864 -0.4622054 0.3472958 0.014833147 0.12523903 -0.04988036 -0.07888937 0.7333581 0.27266458 -0.16505122 -0.21820737 -0.16551039 -0.14171651 0.2073828 0.16975704 -0.04658201 0.14111398 -0.40622893 -0.14563441 -0.26977265 -0.2025416 0.12968312 -0.013558615 0.06541902 -0.565162 -0.10391394 0.5077187 0.30074626 0.031326964 -0.17699605 -0.075553074 -0.7150763 -0.054498747 -0.49947906 -0.12318618 0.029837988 0.19421558 0.24396577 -0.6833251 0.11105249 -0.0723494 0.06222414 -0.58163095 0.22397494 -0.5245545 -0.34326866 0.34950376 0.19592455 0.17785202 -0.031699188 -0.6487203 0.15454583 0.18530662 -0.10598104 0.27618068 0.047660034 -0.09454769 -0.12741937 -0.07082805 0.19110969 -0.2177174 0.4841486 -0.2701388 -0.021351252 0.2987457 -0.36303207 -0.61053884 -0.11684213 -0.14869319
2177 -0.1677078 -0.22607158 -0.26771966 0.13401651 -0.1255523 0.59546816 0.35885578 -0.1382132 -0.5504688 0.0967774 0.060712494 -0.60868895 0.0058663115 -0.6328467 -0.7964801 0.3193424 0.59944636 0.58872515 0.42668962 0.053937998 -0.13371241 0.30042267 0.143372 0.11358317 0.4224313 0.33476278 0.47834462 -0.064448275 0.092829384 -0.05755551 0.08173189 -0.44262728 -0.1048088 -0.1978896 -0.27644962 -0.027365647 -0.25725624 -0.23691957 0.40229943 -0.7031639 0.1433302 0.5515571 -0.11210852 -0.0009571868 0.40614238 0.26205814 -0.14361559 -0.080363005 -0.16307507 0.80262524 0.2030722 0.33466607 0.37717247 0.2519007 -0.12725894 -0.3518863 0.26700124 -0.2028639 -0.31859988 -0.19017735 -0.20502266 0.18716487 -0.03748109 -0.23541476 -0.45675007 -0.10244302 0.47161326 -0.025259739 0.2536779 0.077674024 0.04788064 -0.22465688 -0.17383157 -0.05286487 0.15193275 -0.14594872 -0.5733419 0.2737948 -0.08322902 0.25550905 0.1875643 -0.33213502 -0.40568712 -0.1596051 0.21517958 0.41758123 0.24324274 -0.10760299 -0.28176412 -0.3410342 -0.21583499 0.20523998 -0.015762791 0.025155798 -0.19649994 -0.07357654 -0.4473585 -0.4179429 -0.123397976 -0.08870151 0.07145141 -0.03853824 -0.8085593 -0.2868908 -0.26076245 0.20280595 -0.15459642 -0.3193789 0.3822504 0.12527496 0.38336447 -0.22708786 0.32835948 -0.22171436 -0.5046039 -0.17608675 0.14614281 -0.5438738 0.16365616 -0.35872287 0.17233622 0.1591722 -0.47363544 0.16732016 -0.45337337 -0.44295794 -0.2390007 0.027865434
1136 -0.19377169 -0.4538019 -0.29683372 0.085472584 -0.11550496 0.45392075 0.06566937 -0.19630331 -0.3342405 -0.21215774 0.22433373 -0.8834227 -0.09132389 -0.7218783 -0.50016075 0.49660596 0.41613618 0.59076405 0.46444505 -0.6034095 0.05596893 0.30039793 0.46499372 -0.8556979 -0.05398045 0.48149818 -0.057971515 0.20954962 -0.4161666 -0.43584284 0.1797965 -0.4236969 -0.06066351 -0.09540414 -0.34681663 -0.2992796 -0.23212717 -0.6091065 -0.3408424 -0.5638397 0.1433369 0.3990253 0.39907295 0.45681047 0.12025554 -0.12690318 -0.031995468 -0.09245792 -0.21153222 0.5329471 -0.0062567797 -0.10579947 0.07792673 -0.035455033 -0.07387624 -0.1962384 0.06954869 -0.023260169 -0.041615903 -0.41876665 -0.14242789 0.64971316 0.26973164 -0.3701076 0.06572386 0.24674335 0.3742062 0.072110705 0.27945328 -0.5304461 0.0924262 0.056348268 -0.4598985 -0.18005095 0.2184768 0.5158456 -0.7530236 0.051504746 -0.086066455 0.29246157 0.08415693 0.45751756 -0.09965775 -0.4978234 0.10348345 -0.1258768 0.44500363 -0.19061726 -0.18833882 0.025716895 -0.61132246 0.35362932 0.032259252 0.009450963 -0.09764228 0.18736818 -0.18558624 -0.17586724 -0.15944248 0.16201611 -0.07045705 -0.11763204 -0.08166658 -0.031707417 -0.73272675 0.4774537 0.00027240434 -0.07480642 0.027890828 -0.014181958 -0.14175786 -0.4376904 0.39517823 0.04813167 -0.3541716 0.2798877 -0.41911405 -0.38753542 -0.43695945 -0.17718801 -0.02400974 -0.3236677 0.31767702 0.035084706 -0.056227043 -0.3050789 0.2540408 -0.040663645
1457 -0.5664406 0.4803476 -0.030638775 0.47984326 -0.23188463 0.29366243 0.08006088 0.6063534 0.23583783 0.39330354 0.1721594 -0.5904066 -0.12710471 -0.57955176 -0.9602173 -0.27321643 0.031416327 0.14890757 0.6814079 0.36935496 -0.12266784 -0.21010935 0.13942213 -0.16731903 0.4935714 0.2444742 0.5169811 0.27828777 -0.066402785 -0.33625263 0.34237602 -0.68044984 0.35172608 0.13513815 0.10769549 -0.62148774 0.034711517 -0.21576184 0.28152236 -0.12441813 0.64953506 0.2390191 0.28123286 0.0934906 0.40031046 -0.2621195 -0.3566041 -0.3506134 -0.2972871 -0.010088813 -0.05786971 -0.1053886 -0.059178 -0.14602654 0.061666973 0.26950195 -0.3620219 -0.5734106 -0.05999727 0.30157727 0.0017878261 -0.28602636 0.33747885 -0.33072007 -0.059878252 0.24007863 0.16822648 0.037232637 -0.15456857 -0.18531814 0.16978383 -0.6211151 -0.10267208 0.32082433 0.06893863 -0.14617455 -0.32604125 -0.13887149 0.5736997 0.04910435 -0.09720017 -0.21901047 0.06592741 -0.10665076 0.117678545 -0.31912288 0.124576785 -0.7931287 -0.2533932 0.09008458 -0.8387402 0.56262726 -0.070588954 -0.18668424 0.038019467 -0.37795088 -0.30116668 -0.48459125 -0.0666055 0.06952401 0.4169659 -0.20227832 -0.51253706 -0.40501106 -0.52893186 0.025825182 0.10134424 -0.5759939 -0.09407687 0.13318616 0.09195871 -0.23146768 0.31820306 -0.032322936 -0.3684308 0.16805494 -0.057191625 0.39683127 -0.099154875 -0.3404427 0.14471212 -0.5529394 0.17814916 0.14380565 -0.20830593 -0.083729304 0.15596062 -0.11282348
2265 0.004973073 0.30408165 -0.29743415 0.3388024 -0.281938 0.29564577 0.2830569 -0.15531762 -0.10782234 -0.46309468 0.024806714 -0.73694205 0.011133046 -0.40431777 -0.93048257 0.22643407 0.34426293 0.62190175 0.48523223 -0.12392098 -0.5122479 0.565748 -0.1303937 -0.5329589 0.21993642 0.08082739 0.80743814 -0.015129741 -0.13780816 -0.36311272 0.23391543 -0.4150044 -0.12266649 0.034411035 -0.25234252 -0.34655502 -0.61637837 -0.28228125 -0.20426515 -0.6411574 0.16317321 0.5394542 -0.2241284 -0.08414668 0.21561927 -0.02201401 -0.23259713 -0.038547255 -0.0037836747 0.46397933 0.31552747 -0.08998249 0.07437613 -0.16667594 -0.027497748 -0.27322447 0.020718222 0.15722561 -0.47470075 -0.16164191 -0.19652174 0.13036206 0.26718745 -0.32464808 -0.09354165 0.03306937 0.072643906 0.161194 0.16586281 -0.3728626 0.017818088 -0.09589491 -0.121227436 -0.14886948 -0.17777161 -0.08935521 -0.38212064 0.15732263 0.14837137 0.15088671 0.23407225 0.18923415 -0.17218545 -0.36394992 -0.35966486 -0.24045041 0.3446633 -0.43853492 -0.20149979 -0.08762845 -0.17294915 0.34295878 -0.17947397 0.09438738 -0.062331118 -0.15589553 0.03300983 -0.6269931 -0.13731994 0.07793837 -0.15181369 -0.50790346 -0.16233762 -0.15025084 -0.13903771 0.16925277 -0.0093315765 -0.18943867 -0.2734358 -0.20159414 0.23620296 -0.30306202 -0.43093735 -0.23409142 -0.29450437 0.027161326 -0.08244406 -0.33562174 0.06086745 -0.29545796 0.50674355 -0.118716866 0.17613277 0.069816045 -0.44600296 -0.377649 -0.06453479 0.077733666
1225 -0.17796773 -0.83197904 -0.027228337 0.20067033 -0.25866896 0.3801012 0.29588407 0.052577574 -0.26832914 0.030373879 0.16540146 -0.6758964 -0.07789961 -0.44698888 -0.569722 0.37010103 0.31782466 0.59225094 0.13852377 -0.35087234 0.114744805 0.67786926 -0.30999297 -0.25439933 0.47683388 0.68576705 -0.059316877 0.016379232 0.026413253 -0.46741527 0.25756297 -0.63426983 -0.009170649 -0.10316897 -0.4519847 -0.26842308 -0.37314624 -0.4196373 0.21707836 -0.12997602 0.45934394 0.03357743 -0.38919988 -0.16749755 0.3437843 0.05262039 0.090955086 -0.28766486 -0.03009118 0.26232544 -0.26127294 -0.07046142 0.29528555 -0.096255414 -0.060008716 0.12447432 -0.13838285 -0.06623557 0.08736863 -0.4309811 -0.38275874 0.3256047 -0.027073104 -0.2550909 0.102030724 0.098505594 0.06594824 0.07144948 0.23881158 -0.21777508 0.23918463 -0.024599083 -0.529462 -0.33011147 0.015008996 0.55673003 -0.2863258 0.13276492 0.0731322 0.08246649 -0.07732158 0.54644716 -0.37193105 -0.35004675 -0.1663238 -0.10183919 0.1668026 -0.4433635 -0.29945636 0.04474791 -0.08572087 -0.057540674 -0.29263058 0.34334186 0.2627824 0.2562162 -0.60437185 -0.3879347 -0.2842953 0.15656517 0.1481349 0.14381745 -0.2163555 -0.5687272 -0.33802575 0.31901875 -0.21157575 0.058780663 0.14438142 -0.052735712 -0.059380956 -0.2904202 0.08538023 0.061263453 0.0058448697 -0.01429664 0.00447466 -0.577261 -0.12227638 0.13106443 -0.058437664 -0.11654495 -0.016921766 0.59360594 -0.49208987 -0.33508298 0.29671544 0.0592822
2563 -0.4688181 -0.056497224 -0.33883503 -0.04260089 -0.3662626 0.16771239 0.34996453 -0.25487933 -0.3127451 -0.48186174 0.2712585 -0.76828706 0.48593113 -0.41828755 -0.27260107 0.07225306 0.34206778 0.55544657 -0.0728374 0.45311445 0.21621329 0.5982692 0.14068674 0.22825971 0.32985044 0.48890325 0.039621465 -0.24618211 0.4546299 -0.5399898 0.15056379 -0.5425045 -0.21626446 -0.2843045 -0.10931237 -0.06448932 -0.46549872 -0.23439503 -0.12492006 -0.5027823 0.14660558 0.21611235 0.081720814 0.19303653 0.23307815 0.30657598 -0.14717054 -0.15372036 -0.43313926 0.36017725 -0.0972607 -0.21406938 0.0530704 -0.27735665 -0.08715605 -0.24355347 0.18446663 -0.64179254 -0.3816355 -0.24087742 -0.37038615 0.048125632 0.11353732 -0.20569955 -0.19520546 0.28337482 0.35255897 -0.17887622 0.16412857 0.040388796 0.2584895 -0.46452492 -0.08597723 0.3671293 -0.10712321 -0.042275462 -0.45843628 0.5404483 0.060798418 0.06931904 -0.53989285 0.4793291 -0.3102526 -0.52736855 0.14571573 0.46161526 0.19569965 -0.59255975 -0.59427744 -0.20620963 0.0023943996 -0.11703726 -0.4605962 0.017307635 0.1256473 -0.26595718 -0.379987 -0.5873818 -0.39136645 -0.14787981 -0.2112763 -0.10942875 0.09429934 0.09185038 -0.46533698 0.19957013 -0.09245421 -0.036620867 0.42008606 0.3799976 0.19234985 -0.5654996 0.19775699 0.034169164 -0.13376008 -0.06089364 -0.32434103 -0.27384898 0.14710717 -0.19969718 0.17867722 -0.029510505 0.2833706 0.065377966 -0.05639102 -0.9739114 0.18800333 -0.17458269
1689 -0.19371678 0.22011301 -0.3218396 0.1772058 -0.67516303 0.016309077 0.5908369 -0.11204291 -0.58779544 -0.39281026 0.09269865 -0.61121655 0.23837796 -0.87007856 -0.20146899 0.057989553 0.24202484 0.8692769 -0.25799918 0.18235041 0.31168 0.29522246 0.12407899 -0.23931164 0.35447982 0.44785425 0.12825768 0.061536808 0.09291343 -0.14410089 0.37257805 -0.4964641 -0.33223435 0.29257026 -0.15094693 0.025325593 -0.37047848 -0.14770798 -0.19029932 -0.9209318 0.75067323 0.025051452 -0.038606077 0.16306697 0.04248136 0.15110397 -0.08236994 -0.32270038 -0.05973398 0.34759364 0.017637039 -0.37102517 0.17947853 -0.56619936 0.15453927 -0.24615979 0.04669001 -0.33041126 -0.2605746 -0.3462101 -0.1226178 0.30440536 0.11450144 -0.14335658 -0.4936975 0.37637755 0.012766287 -0.4947855 -0.030159507 -0.57767624 0.2323659 -0.30599517 -0.33431095 -0.027531428 -0.33590865 -0.09656499 -0.19914883 0.33392787 -0.14936438 0.07504279 0.14357431 0.27508864 -0.1464792 -0.31990552 -0.15156606 -0.11620209 0.14952947 -0.312897 -0.21371397 -0.80156535 0.1215489 0.14283828 0.005157509 -0.09596346 0.2503178 -0.007029891 -0.47726044 -0.31732836 0.32430637 0.02208954 -0.2568489 0.0022574777 -0.102535926 -0.4979242 -0.27413228 0.078954816 0.15718558 0.19473922 0.3802119 0.34150293 0.6013325 -0.4943863 0.085573636 -0.16233763 -0.31647813 0.37192786 -0.40460286 -0.011151303 -0.2028493 -0.31554937 -0.0264234 -0.08104157 0.16198769 -0.43406188 -0.28547293 -0.41015938 0.1145472 -0.24471535
1498 -0.22383565 0.22715244 0.40723395 -0.010258146 -0.2377916 0.20521165 -0.102910616 -0.23765452 -0.5159046 0.035744358 0.17378515 -0.85063076 -0.38307244 -0.39648804 -0.38917467 0.57399714 -0.05009149 0.41954 0.17629962 0.19352823 -0.4113175 0.7413096 0.11256871 0.25912496 0.0728916 0.6173373 0.05158932 -0.074077025 0.076796204 -0.68098867 0.17603819 -0.06465119 0.007047915 -0.19754742 -0.11643515 -0.7015735 -0.155142 0.09969569 0.08086396 -0.37182495 0.21330692 0.32704517 -0.017991463 -0.057913803 0.07211731 0.36842945 -0.32737726 -0.45021403 -0.8846336 0.35871816 -0.22900975 0.3310268 0.1443472 0.46912736 0.046776403 -0.15451199 -0.14362091 -0.18494551 -0.54782075 -0.2502596 0.120909415 -0.18200408 0.045842845 -0.15659213 0.17902544 0.320455 0.5917415 -0.010786347 -0.21209224 -0.14515038 0.21617003 -0.14069292 -0.6562168 -0.07667561 -0.1790936 0.031393405 -0.18665032 0.8243047 -0.06024405 0.28199905 0.05864729 0.11907673 -0.12452962 -0.32183832 0.18205795 0.2772245 -0.1836918 0.052669886 -0.43080622 -0.090046406 -0.35709968 -0.28162372 -0.2743851 0.29555336 0.4248284 0.037255645 0.09001306 -0.18789914 0.49399883 -0.39406344 -0.32290456 0.19120783 -0.59481555 -0.62521195 -0.38900444 0.38350657 -0.15007372 0.33346057 -0.18196024 0.5719747 0.152667 -0.27095953 0.40626547 -0.18337312 -0.1557361 0.075954355 0.2629446 -0.0030710036 -0.03302531 -0.09790855 0.08718112 0.1845909 0.30030614 0.08914591 -0.5712392 -0.29602623 -0.13408725 0.047932956
